<?xml version="1.0"?>
<opencv_storage>
<cascade>
  <stageType>BOOST</stageType>
  <featureType>HAAR</featureType>
  <height>20</height>
  <width>20</width>
  <stageParams>
    <boostType>GAB</boostType>
    <minHitRate>9.9500000476837158e-01</minHitRate>
    <maxFalseAlarm>5.0000000000000000e-01</maxFalseAlarm>
    <weightTrimRate>9.4999999999999996e-01</weightTrimRate>
    <maxDepth>1</maxDepth>
    <maxWeakCount>100</maxWeakCount></stageParams>
  <featureParams>
    <maxCatCount>0</maxCatCount>
    <featSize>1</featSize>
    <mode>BASIC</mode></featureParams>
  <stageNum>15</stageNum>
  <stages>
    <!-- stage 0 -->
    <_>
      <maxWeakCount>37</maxWeakCount>
      <stageThreshold>-1.2945853471755981e+00</stageThreshold>
      <weakClassifiers>
        <_>
          <internalNodes>
            0 -1 75 2.5306504964828491e-01</internalNodes>
          <leafValues>
            -2.9638898372650146e-01 6.6147857904434204e-01</leafValues></_>
        <_>
          <internalNodes>
            0 -1 962 7.7668717131018639e-04</internalNodes>
          <leafValues>
            1.6474598646163940e-01 -5.2402043342590332e-01</leafValues></_>
        <_>
          <internalNodes>
            0 -1 963 -5.4412463214248419e-04</internalNodes>
          <leafValues>
            -4.6096208691596985e-01 1.3332955539226532e-01</leafValues></_>
        <_>
          <internalNodes>
            0 -1 934 1.1537699028849602e-03</internalNodes>
          <leafValues>
            1.5736258029937744e-01 -4.1977414488792419e-01</leafValues></_>
        <_>
          <internalNodes>
            0 -1 327 -7.9496003687381744e-02</internalNodes>
          <leafValues>
            2.9045081138610840e-01 -2.1101935207843781e-01</leafValues></_>
        <_>
          <internalNodes>
            0 -1 21 -1.1821455322206020e-02</internalNodes>
          <leafValues>
            -4.8705840110778809e-01 7.5600773096084595e-02</leafValues></_>
        <_>
          <internalNodes>
            0 -1 171 3.7267226725816727e-03</internalNodes>
          <leafValues>
            1.8020732700824738e-01 -3.1914469599723816e-01</leafValues></_>
        <_>
          <internalNodes>
            0 -1 239 -4.4680037535727024e-03</internalNodes>
          <leafValues>
            -4.1624626517295837e-01 1.0740549862384796e-01</leafValues></_>
        <_>
          <internalNodes>
            0 -1 240 2.5065289810299873e-03</internalNodes>
          <leafValues>
            1.5618427097797394e-01 -4.2987880110740662e-01</leafValues></_>
        <_>
          <internalNodes>
            0 -1 869 9.0981251560151577e-04</internalNodes>
          <leafValues>
            5.7191673666238785e-02 -4.6514156460762024e-01</leafValues></_>
        <_>
          <internalNodes>
            0 -1 965 -2.2209597751498222e-02</internalNodes>
          <leafValues>
            -4.3609794974327087e-01 9.1367542743682861e-02</leafValues></_>
        <_>
          <internalNodes>
            0 -1 586 -7.8465268015861511e-03</internalNodes>
          <leafValues>
            3.1023609638214111e-01 -1.2190103530883789e-01</leafValues></_>
        <_>
          <internalNodes>
            0 -1 644 2.4040839634835720e-03</internalNodes>
          <leafValues>
            -1.2265644222497940e-01 3.0144873261451721e-01</leafValues></_>
        <_>
          <internalNodes>
            0 -1 972 2.0440470427274704e-02</internalNodes>
          <leafValues>
            9.2138573527336121e-02 -4.4894781708717346e-01</leafValues></_>
        <_>
          <internalNodes>
            0 -1 529 -4.4877780601382256e-03</internalNodes>
          <leafValues>
            4.5435962080955505e-01 -7.8004948794841766e-02</leafValues></_>
        <_>
          <internalNodes>
            0 -1 160 -1.7890892922878265e-03</internalNodes>
          <leafValues>
            -2.6130583882331848e-01 1.3109274208545685e-01</leafValues></_>
        <_>
          <internalNodes>
            0 -1 200 1.5371469780802727e-03</internalNodes>
          <leafValues>
            -1.5927068889141083e-01 2.0537962019443512e-01</leafValues></_>
        <_>
          <internalNodes>
            0 -1 940 7.5246002525091171e-03</internalNodes>
          <leafValues>
            8.8590018451213837e-02 -3.4342241287231445e-01</leafValues></_>
        <_>
          <internalNodes>
            0 -1 532 6.0194346588104963e-04</internalNodes>
          <leafValues>
            -1.2382306158542633e-01 2.5541990995407104e-01</leafValues></_>
        <_>
          <internalNodes>
            0 -1 974 -1.1435712222009897e-03</internalNodes>
          <leafValues>
            -2.5757274031639099e-01 1.2132737785577774e-01</leafValues></_>
        <_>
          <internalNodes>
            0 -1 719 -5.2734371274709702e-03</internalNodes>
          <leafValues>
            7.5208121538162231e-01 -4.2741101235151291e-02</leafValues></_>
        <_>
          <internalNodes>
            0 -1 415 3.2230163924396038e-03</internalNodes>
          <leafValues>
            -1.2416186183691025e-01 2.3366612195968628e-01</leafValues></_>
        <_>
          <internalNodes>
            0 -1 702 7.4923299252986908e-03</internalNodes>
          <leafValues>
            8.3995170891284943e-02 -3.6318957805633545e-01</leafValues></_>
        <_>
          <internalNodes>
            0 -1 30 -2.3061276879161596e-03</internalNodes>
          <leafValues>
            -3.4571158885955811e-01 7.3779694736003876e-02</leafValues></_>
        <_>
          <internalNodes>
            0 -1 68 -1.8090079538524151e-03</internalNodes>
          <leafValues>
            2.2684901952743530e-01 -1.3183012604713440e-01</leafValues></_>
        <_>
          <internalNodes>
            0 -1 742 3.2553751952946186e-03</internalNodes>
          <leafValues>
            -1.2618000805377960e-01 2.2466681897640228e-01</leafValues></_>
        <_>
          <internalNodes>
            0 -1 546 1.2469597160816193e-02</internalNodes>
          <leafValues>
            -3.9350330829620361e-02 7.4900305271148682e-01</leafValues></_>
        <_>
          <internalNodes>
            0 -1 145 4.0230865124613047e-04</internalNodes>
          <leafValues>
            9.2930585145950317e-02 -3.2514971494674683e-01</leafValues></_>
        <_>
          <internalNodes>
            0 -1 382 -6.6204657778143883e-03</internalNodes>
          <leafValues>
            2.9963582754135132e-01 -9.1677837073802948e-02</leafValues></_>
        <_>
          <internalNodes>
            0 -1 652 -8.3436015993356705e-03</internalNodes>
          <leafValues>
            5.2249473333358765e-01 -4.5111712068319321e-02</leafValues></_>
        <_>
          <internalNodes>
            0 -1 874 -3.8481148658320308e-04</internalNodes>
          <leafValues>
            -2.6329660415649414e-01 1.0604556649923325e-01</leafValues></_>
        <_>
          <internalNodes>
            0 -1 996 -1.1971110478043556e-02</internalNodes>
          <leafValues>
            -5.0661689043045044e-01 5.0319716334342957e-02</leafValues></_>
        <_>
          <internalNodes>
            0 -1 924 -1.4893044717609882e-03</internalNodes>
          <leafValues>
            -2.2994053363800049e-01 1.2969079613685608e-01</leafValues></_>
        <_>
          <internalNodes>
            0 -1 602 1.6810197383165359e-02</internalNodes>
          <leafValues>
            6.5324187278747559e-02 -4.6585693955421448e-01</leafValues></_>
        <_>
          <internalNodes>
            0 -1 891 -1.1080874537583441e-04</internalNodes>
          <leafValues>
            1.6503424942493439e-01 -1.7663751542568207e-01</leafValues></_>
        <_>
          <internalNodes>
            0 -1 987 -1.0454892180860043e-03</internalNodes>
          <leafValues>
            -2.4402299523353577e-01 1.2851542234420776e-01</leafValues></_>
        <_>
          <internalNodes>
            0 -1 861 2.5595580227673054e-03</internalNodes>
          <leafValues>
            -6.7707821726799011e-02 4.5473930239677429e-01</leafValues></_></weakClassifiers></_>
    <!-- stage 1 -->
    <_>
      <maxWeakCount>41</maxWeakCount>
      <stageThreshold>-1.4086796045303345e+00</stageThreshold>
      <weakClassifiers>
        <_>
          <internalNodes>
            0 -1 352 1.8143123388290405e-01</internalNodes>
          <leafValues>
            -3.1680867075920105e-01 4.5130315423011780e-01</leafValues></_>
        <_>
          <internalNodes>
            0 -1 991 -8.5623352788388729e-04</internalNodes>
          <leafValues>
            -4.3922072649002075e-01 1.8425369262695313e-01</leafValues></_>
        <_>
          <internalNodes>
            0 -1 991 1.5000664861872792e-03</internalNodes>
          <leafValues>
            1.5395775437355042e-01 -5.0439971685409546e-01</leafValues></_>
        <_>
          <internalNodes>
            0 -1 157 -3.5628065234050155e-04</internalNodes>
          <leafValues>
            -4.6630290150642395e-01 1.3003326952457428e-01</leafValues></_>
        <_>
          <internalNodes>
            0 -1 664 -1.5900456346571445e-03</internalNodes>
          <leafValues>
            -3.6931979656219482e-01 1.9137014448642731e-01</leafValues></_>
        <_>
          <internalNodes>
            0 -1 702 -4.3538594618439674e-03</internalNodes>
          <leafValues>
            -4.7666168212890625e-01 1.0049217939376831e-01</leafValues></_>
        <_>
          <internalNodes>
            0 -1 550 -1.0628527961671352e-03</internalNodes>
          <leafValues>
            -3.1569495797157288e-01 1.8494804203510284e-01</leafValues></_>
        <_>
          <internalNodes>
            0 -1 802 -1.0304278694093227e-03</internalNodes>
          <leafValues>
            -3.9136481285095215e-01 8.4281012415885925e-02</leafValues></_>
        <_>
          <internalNodes>
            0 -1 650 -2.0543515682220459e-02</internalNodes>
          <leafValues>
            3.2539352774620056e-01 -1.2168902158737183e-01</leafValues></_>
        <_>
          <internalNodes>
            0 -1 32 -6.6193891689181328e-04</internalNodes>
          <leafValues>
            -2.6783734560012817e-01 1.4021098613739014e-01</leafValues></_>
        <_>
          <internalNodes>
            0 -1 43 1.4385838061571121e-02</internalNodes>
          <leafValues>
            1.0050651431083679e-01 -4.5497119426727295e-01</leafValues></_>
        <_>
          <internalNodes>
            0 -1 906 5.3441290219780058e-05</internalNodes>
          <leafValues>
            1.3025926053524017e-01 -2.3707735538482666e-01</leafValues></_>
        <_>
          <internalNodes>
            0 -1 491 -1.0187940206378698e-03</internalNodes>
          <leafValues>
            -3.9696672558784485e-01 7.5971461832523346e-02</leafValues></_>
        <_>
          <internalNodes>
            0 -1 438 3.9035049267113209e-03</internalNodes>
          <leafValues>
            -5.5008430033922195e-02 6.2905645370483398e-01</leafValues></_>
        <_>
          <internalNodes>
            0 -1 561 -2.1791126579046249e-02</internalNodes>
          <leafValues>
            -5.4032200574874878e-01 6.7735128104686737e-02</leafValues></_>
        <_>
          <internalNodes>
            0 -1 168 5.3942166268825531e-03</internalNodes>
          <leafValues>
            -1.8450376391410828e-01 1.7325690388679504e-01</leafValues></_>
        <_>
          <internalNodes>
            0 -1 906 -5.5598246399313211e-04</internalNodes>
          <leafValues>
            -2.9485157132148743e-01 1.0034587979316711e-01</leafValues></_>
        <_>
          <internalNodes>
            0 -1 147 5.5659314966760576e-05</internalNodes>
          <leafValues>
            1.2602430582046509e-01 -2.2057028114795685e-01</leafValues></_>
        <_>
          <internalNodes>
            0 -1 135 -3.1407417263835669e-03</internalNodes>
          <leafValues>
            -3.0688264966011047e-01 9.6456035971641541e-02</leafValues></_>
        <_>
          <internalNodes>
            0 -1 112 -1.3221213221549988e-01</internalNodes>
          <leafValues>
            3.9443412423133850e-01 -7.4826307594776154e-02</leafValues></_>
        <_>
          <internalNodes>
            0 -1 694 2.1571922115981579e-03</internalNodes>
          <leafValues>
            -9.1962836682796478e-02 3.1019005179405212e-01</leafValues></_>
        <_>
          <internalNodes>
            0 -1 692 3.8548214361071587e-03</internalNodes>
          <leafValues>
            -6.7322850227355957e-02 4.5429822802543640e-01</leafValues></_>
        <_>
          <internalNodes>
            0 -1 233 -2.9445861582644284e-04</internalNodes>
          <leafValues>
            -2.0799972116947174e-01 1.2783382833003998e-01</leafValues></_>
        <_>
          <internalNodes>
            0 -1 356 5.7430737651884556e-03</internalNodes>
          <leafValues>
            -6.8096540868282318e-02 3.9995533227920532e-01</leafValues></_>
        <_>
          <internalNodes>
            0 -1 897 1.0978201404213905e-02</internalNodes>
          <leafValues>
            5.3859174251556396e-02 -5.3240233659744263e-01</leafValues></_>
        <_>
          <internalNodes>
            0 -1 912 -1.8633566796779633e-03</internalNodes>
          <leafValues>
            -4.4490483403205872e-01 5.7016551494598389e-02</leafValues></_>
        <_>
          <internalNodes>
            0 -1 416 -4.3772920034825802e-03</internalNodes>
          <leafValues>
            6.4407187700271606e-01 -4.2629469186067581e-02</leafValues></_>
        <_>
          <internalNodes>
            0 -1 184 2.3671653121709824e-02</internalNodes>
          <leafValues>
            8.3293400704860687e-02 -3.7148341536521912e-01</leafValues></_>
        <_>
          <internalNodes>
            0 -1 455 -1.3279117643833160e-02</internalNodes>
          <leafValues>
            3.6482623219490051e-01 -7.4890352785587311e-02</leafValues></_>
        <_>
          <internalNodes>
            0 -1 17 -1.4143035514280200e-03</internalNodes>
          <leafValues>
            -2.8669801354408264e-01 9.6206597983837128e-02</leafValues></_>
        <_>
          <internalNodes>
            0 -1 526 -3.9898492395877838e-03</internalNodes>
          <leafValues>
            3.4793075919151306e-01 -7.3852665722370148e-02</leafValues></_>
        <_>
          <internalNodes>
            0 -1 984 -5.0403242930769920e-03</internalNodes>
          <leafValues>
            -4.3200647830963135e-01 6.0546796768903732e-02</leafValues></_>
        <_>
          <internalNodes>
            0 -1 533 7.9230591654777527e-03</internalNodes>
          <leafValues>
            -4.2951308190822601e-02 6.1274087429046631e-01</leafValues></_>
        <_>
          <internalNodes>
            0 -1 220 6.7808860912919044e-03</internalNodes>
          <leafValues>
            -9.8865695297718048e-02 2.2736249864101410e-01</leafValues></_>
        <_>
          <internalNodes>
            0 -1 550 2.5319769047200680e-03</internalNodes>
          <leafValues>
            9.2338897287845612e-02 -2.5135192275047302e-01</leafValues></_>
        <_>
          <internalNodes>
            0 -1 393 -6.5251288469880819e-04</internalNodes>
          <leafValues>
            -1.9176599383354187e-01 1.3129332661628723e-01</leafValues></_>
        <_>
          <internalNodes>
            0 -1 50 1.1851037561427802e-04</internalNodes>
          <leafValues>
            -1.3988560438156128e-01 1.8550905585289001e-01</leafValues></_>
        <_>
          <internalNodes>
            0 -1 395 3.6838641390204430e-03</internalNodes>
          <leafValues>
            6.6295430064201355e-02 -3.8380882143974304e-01</leafValues></_>
        <_>
          <internalNodes>
            0 -1 535 -2.5793809909373522e-03</internalNodes>
          <leafValues>
            3.9855676889419556e-01 -6.4360484480857849e-02</leafValues></_>
        <_>
          <internalNodes>
            0 -1 832 -4.8940856941044331e-03</internalNodes>
          <leafValues>
            6.3939946889877319e-01 -3.2170746475458145e-02</leafValues></_>
        <_>
          <internalNodes>
            0 -1 549 9.9233887158334255e-04</internalNodes>
          <leafValues>
            7.4051871895790100e-02 -3.5317146778106689e-01</leafValues></_></weakClassifiers></_>
    <!-- stage 2 -->
    <_>
      <maxWeakCount>43</maxWeakCount>
      <stageThreshold>-1.2274857759475708e+00</stageThreshold>
      <weakClassifiers>
        <_>
          <internalNodes>
            0 -1 198 3.0671834945678711e-01</internalNodes>
          <leafValues>
            -2.8878989815711975e-01 4.6839547157287598e-01</leafValues></_>
        <_>
          <internalNodes>
            0 -1 843 4.0264980634674430e-04</internalNodes>
          <leafValues>
            1.2585644423961639e-01 -5.2917528152465820e-01</leafValues></_>
        <_>
          <internalNodes>
            0 -1 73 -2.7053151279687881e-03</internalNodes>
          <leafValues>
            -3.6916333436965942e-01 1.4223682880401611e-01</leafValues></_>
        <_>
          <internalNodes>
            0 -1 802 -8.6682371329516172e-04</internalNodes>
          <leafValues>
            -4.1737145185470581e-01 1.5172624588012695e-01</leafValues></_>
        <_>
          <internalNodes>
            0 -1 118 -1.8991134129464626e-03</internalNodes>
          <leafValues>
            -3.7654444575309753e-01 1.4188624918460846e-01</leafValues></_>
        <_>
          <internalNodes>
            0 -1 959 3.2083844416774809e-04</internalNodes>
          <leafValues>
            4.1329644620418549e-02 -4.2264038324356079e-01</leafValues></_>
        <_>
          <internalNodes>
            0 -1 961 2.3589175543747842e-04</internalNodes>
          <leafValues>
            1.7471823096275330e-01 -2.8943651914596558e-01</leafValues></_>
        <_>
          <internalNodes>
            0 -1 538 -7.5805624946951866e-03</internalNodes>
          <leafValues>
            2.8032374382019043e-01 -1.4675833284854889e-01</leafValues></_>
        <_>
          <internalNodes>
            0 -1 283 -1.2931697070598602e-01</internalNodes>
          <leafValues>
            -3.9515817165374756e-01 1.2119580805301666e-01</leafValues></_>
        <_>
          <internalNodes>
            0 -1 144 2.5173302739858627e-02</internalNodes>
          <leafValues>
            -1.1613016575574875e-01 3.8605815172195435e-01</leafValues></_>
        <_>
          <internalNodes>
            0 -1 102 -2.7737533673644066e-04</internalNodes>
          <leafValues>
            -1.9351235032081604e-01 1.7745272815227509e-01</leafValues></_>
        <_>
          <internalNodes>
            0 -1 388 -3.6620941013097763e-02</internalNodes>
          <leafValues>
            4.1493955254554749e-01 -9.4147332012653351e-02</leafValues></_>
        <_>
          <internalNodes>
            0 -1 39 -8.4582972340285778e-04</internalNodes>
          <leafValues>
            -2.9494604468345642e-01 1.1422640085220337e-01</leafValues></_>
        <_>
          <internalNodes>
            0 -1 636 -2.6762278284877539e-03</internalNodes>
          <leafValues>
            2.6819285750389099e-01 -1.1422666162252426e-01</leafValues></_>
        <_>
          <internalNodes>
            0 -1 868 -3.0656876042485237e-03</internalNodes>
          <leafValues>
            -4.1753876209259033e-01 6.1998695135116577e-02</leafValues></_>
        <_>
          <internalNodes>
            0 -1 274 -1.0324863716959953e-02</internalNodes>
          <leafValues>
            3.2552817463874817e-01 -9.0063102543354034e-02</leafValues></_>
        <_>
          <internalNodes>
            0 -1 798 4.3219490908086300e-03</internalNodes>
          <leafValues>
            6.8087562918663025e-02 -4.1574591398239136e-01</leafValues></_>
        <_>
          <internalNodes>
            0 -1 262 7.4378643184900284e-03</internalNodes>
          <leafValues>
            -1.3991916179656982e-01 1.9817526638507843e-01</leafValues></_>
        <_>
          <internalNodes>
            0 -1 915 -1.2418704573065042e-03</internalNodes>
          <leafValues>
            -4.6941733360290527e-01 4.7044102102518082e-02</leafValues></_>
        <_>
          <internalNodes>
            0 -1 578 -3.1320797279477119e-03</internalNodes>
          <leafValues>
            3.1768184900283813e-01 -8.0351509153842926e-02</leafValues></_>
        <_>
          <internalNodes>
            0 -1 992 -2.9150284826755524e-03</internalNodes>
          <leafValues>
            -2.8466090559959412e-01 9.5713101327419281e-02</leafValues></_>
        <_>
          <internalNodes>
            0 -1 646 -1.0442944243550301e-02</internalNodes>
          <leafValues>
            2.3310677707195282e-01 -1.2978635728359222e-01</leafValues></_>
        <_>
          <internalNodes>
            0 -1 988 1.3172280043363571e-02</internalNodes>
          <leafValues>
            5.8486029505729675e-02 -4.8724290728569031e-01</leafValues></_>
        <_>
          <internalNodes>
            0 -1 353 -3.3098414540290833e-01</internalNodes>
          <leafValues>
            -4.5384368300437927e-01 6.3188292086124420e-02</leafValues></_>
        <_>
          <internalNodes>
            0 -1 10 7.2967517189681530e-03</internalNodes>
          <leafValues>
            3.0125420540571213e-02 -7.5592446327209473e-01</leafValues></_>
        <_>
          <internalNodes>
            0 -1 619 -4.7785486094653606e-03</internalNodes>
          <leafValues>
            2.6632872223854065e-01 -9.6987195312976837e-02</leafValues></_>
        <_>
          <internalNodes>
            0 -1 307 6.4504802227020264e-02</internalNodes>
          <leafValues>
            3.9040476083755493e-02 -6.6374945640563965e-01</leafValues></_>
        <_>
          <internalNodes>
            0 -1 615 1.6454320400953293e-02</internalNodes>
          <leafValues>
            -1.1427361518144608e-01 2.1368461847305298e-01</leafValues></_>
        <_>
          <internalNodes>
            0 -1 943 5.2915231208316982e-05</internalNodes>
          <leafValues>
            1.2022124975919724e-01 -1.9260360300540924e-01</leafValues></_>
        <_>
          <internalNodes>
            0 -1 478 5.4810740984976292e-03</internalNodes>
          <leafValues>
            -3.1848110258579254e-02 6.6492122411727905e-01</leafValues></_>
        <_>
          <internalNodes>
            0 -1 60 -3.7835594266653061e-03</internalNodes>
          <leafValues>
            -3.6709153652191162e-01 6.8612076342105865e-02</leafValues></_>
        <_>
          <internalNodes>
            0 -1 789 -9.8139583133161068e-04</internalNodes>
          <leafValues>
            -2.4450626969337463e-01 9.2303037643432617e-02</leafValues></_>
        <_>
          <internalNodes>
            0 -1 162 -4.8471964895725250e-02</internalNodes>
          <leafValues>
            -6.6355299949645996e-01 3.5098668187856674e-02</leafValues></_>
        <_>
          <internalNodes>
            0 -1 120 9.8822414875030518e-03</internalNodes>
          <leafValues>
            6.8083368241786957e-02 -3.0574059486389160e-01</leafValues></_>
        <_>
          <internalNodes>
            0 -1 492 1.0754704475402832e-02</internalNodes>
          <leafValues>
            -5.9819757938385010e-02 3.9397832751274109e-01</leafValues></_>
        <_>
          <internalNodes>
            0 -1 300 1.2780057266354561e-02</internalNodes>
          <leafValues>
            8.2821495831012726e-02 -3.3480891585350037e-01</leafValues></_>
        <_>
          <internalNodes>
            0 -1 264 -3.1581767834722996e-03</internalNodes>
          <leafValues>
            3.3257195353507996e-01 -7.2582244873046875e-02</leafValues></_>
        <_>
          <internalNodes>
            0 -1 397 -7.2241239249706268e-03</internalNodes>
          <leafValues>
            -3.8225796818733215e-01 6.7907474935054779e-02</leafValues></_>
        <_>
          <internalNodes>
            0 -1 685 -3.9132819510996342e-03</internalNodes>
          <leafValues>
            5.2775573730468750e-01 -4.7308020293712616e-02</leafValues></_>
        <_>
          <internalNodes>
            0 -1 83 -4.3794396333396435e-03</internalNodes>
          <leafValues>
            -3.8698634505271912e-01 6.3702173531055450e-02</leafValues></_>
        <_>
          <internalNodes>
            0 -1 814 -2.7826888253912330e-04</internalNodes>
          <leafValues>
            1.5249142050743103e-01 -1.4839361608028412e-01</leafValues></_>
        <_>
          <internalNodes>
            0 -1 552 -1.2143999338150024e-03</internalNodes>
          <leafValues>
            -1.9998142123222351e-01 1.0439922660589218e-01</leafValues></_>
        <_>
          <internalNodes>
            0 -1 287 1.0500094504095614e-04</internalNodes>
          <leafValues>
            1.0987853258848190e-01 -1.9718711078166962e-01</leafValues></_></weakClassifiers></_>
    <!-- stage 3 -->
    <_>
      <maxWeakCount>55</maxWeakCount>
      <stageThreshold>-1.2556736469268799e+00</stageThreshold>
      <weakClassifiers>
        <_>
          <internalNodes>
            0 -1 509 2.3012658953666687e-01</internalNodes>
          <leafValues>
            -2.3515276610851288e-01 4.9246230721473694e-01</leafValues></_>
        <_>
          <internalNodes>
            0 -1 10 -8.5546192713081837e-04</internalNodes>
          <leafValues>
            -4.6597608923912048e-01 1.0611081868410110e-01</leafValues></_>
        <_>
          <internalNodes>
            0 -1 909 6.0519005637615919e-04</internalNodes>
          <leafValues>
            1.1460895091295242e-01 -3.9307227730751038e-01</leafValues></_>
        <_>
          <internalNodes>
            0 -1 84 4.6808463521301746e-03</internalNodes>
          <leafValues>
            1.0741198807954788e-01 -4.3314608931541443e-01</leafValues></_>
        <_>
          <internalNodes>
            0 -1 117 2.4165789363905787e-04</internalNodes>
          <leafValues>
            1.9368763267993927e-01 -2.6810175180435181e-01</leafValues></_>
        <_>
          <internalNodes>
            0 -1 133 -3.5112292971462011e-04</internalNodes>
          <leafValues>
            -2.9183125495910645e-01 8.0461047589778900e-02</leafValues></_>
        <_>
          <internalNodes>
            0 -1 842 1.1399959912523627e-03</internalNodes>
          <leafValues>
            1.2012600153684616e-01 -2.6787233352661133e-01</leafValues></_>
        <_>
          <internalNodes>
            0 -1 846 -6.5656809601932764e-04</internalNodes>
          <leafValues>
            -2.9138186573982239e-01 9.5334991812705994e-02</leafValues></_>
        <_>
          <internalNodes>
            0 -1 691 6.5835518762469292e-03</internalNodes>
          <leafValues>
            -8.8503152132034302e-02 3.6546838283538818e-01</leafValues></_>
        <_>
          <internalNodes>
            0 -1 531 4.3204911053180695e-03</internalNodes>
          <leafValues>
            -3.0345661565661430e-02 6.5208977460861206e-01</leafValues></_>
        <_>
          <internalNodes>
            0 -1 763 -8.6797936819493771e-04</internalNodes>
          <leafValues>
            -3.1935849785804749e-01 8.2022815942764282e-02</leafValues></_>
        <_>
          <internalNodes>
            0 -1 749 -3.0343485996127129e-03</internalNodes>
          <leafValues>
            5.0884824991226196e-01 -4.7724951058626175e-02</leafValues></_>
        <_>
          <internalNodes>
            0 -1 558 -1.9933715462684631e-02</internalNodes>
          <leafValues>
            -4.8663166165351868e-01 5.2756525576114655e-02</leafValues></_>
        <_>
          <internalNodes>
            0 -1 186 1.9982192665338516e-02</internalNodes>
          <leafValues>
            -1.3373228907585144e-01 2.0650513470172882e-01</leafValues></_>
        <_>
          <internalNodes>
            0 -1 668 -1.1292526498436928e-02</internalNodes>
          <leafValues>
            -5.2989822626113892e-01 4.9021244049072266e-02</leafValues></_>
        <_>
          <internalNodes>
            0 -1 954 1.0471482528373599e-03</internalNodes>
          <leafValues>
            8.4183022379875183e-02 -2.8713086247444153e-01</leafValues></_>
        <_>
          <internalNodes>
            0 -1 281 -1.8824967741966248e-01</internalNodes>
          <leafValues>
            7.5629967451095581e-01 -3.5882916301488876e-02</leafValues></_>
        <_>
          <internalNodes>
            0 -1 633 3.6028928589075804e-03</internalNodes>
          <leafValues>
            -4.1217479854822159e-02 5.3443026542663574e-01</leafValues></_>
        <_>
          <internalNodes>
            0 -1 153 1.4718731865286827e-02</internalNodes>
          <leafValues>
            5.5527284741401672e-02 -4.8387962579727173e-01</leafValues></_>
        <_>
          <internalNodes>
            0 -1 670 -1.7356497701257467e-03</internalNodes>
          <leafValues>
            1.8999515473842621e-01 -1.3234037160873413e-01</leafValues></_>
        <_>
          <internalNodes>
            0 -1 937 -7.5683429837226868e-02</internalNodes>
          <leafValues>
            -5.6053525209426880e-01 4.5778475701808929e-02</leafValues></_>
        <_>
          <internalNodes>
            0 -1 376 -9.3215741217136383e-03</internalNodes>
          <leafValues>
            6.9241183996200562e-01 -4.1817571967840195e-02</leafValues></_>
        <_>
          <internalNodes>
            0 -1 237 4.2653860873542726e-05</internalNodes>
          <leafValues>
            1.3411338627338409e-01 -1.8965676426887512e-01</leafValues></_>
        <_>
          <internalNodes>
            0 -1 36 -4.8894774913787842e-01</internalNodes>
          <leafValues>
            -6.2956476211547852e-01 3.6963917315006256e-02</leafValues></_>
        <_>
          <internalNodes>
            0 -1 902 7.7178570791147649e-05</internalNodes>
          <leafValues>
            1.0753751546144485e-01 -2.1505379676818848e-01</leafValues></_>
        <_>
          <internalNodes>
            0 -1 344 5.9592225588858128e-03</internalNodes>
          <leafValues>
            9.7490072250366211e-02 -2.3713102936744690e-01</leafValues></_>
        <_>
          <internalNodes>
            0 -1 590 5.8733196929097176e-03</internalNodes>
          <leafValues>
            -4.7178082168102264e-02 5.8732259273529053e-01</leafValues></_>
        <_>
          <internalNodes>
            0 -1 7 8.9640859514474869e-03</internalNodes>
          <leafValues>
            7.4616760015487671e-02 -3.4993612766265869e-01</leafValues></_>
        <_>
          <internalNodes>
            0 -1 796 -6.8387952633202076e-03</internalNodes>
          <leafValues>
            3.7763825058937073e-01 -6.8771891295909882e-02</leafValues></_>
        <_>
          <internalNodes>
            0 -1 391 4.2176982387900352e-03</internalNodes>
          <leafValues>
            7.0150054991245270e-02 -3.7066969275474548e-01</leafValues></_>
        <_>
          <internalNodes>
            0 -1 183 4.3084349483251572e-02</internalNodes>
          <leafValues>
            2.9116425663232803e-02 -6.8317019939422607e-01</leafValues></_>
        <_>
          <internalNodes>
            0 -1 385 1.0668542236089706e-03</internalNodes>
          <leafValues>
            -8.1926338374614716e-02 2.9070249199867249e-01</leafValues></_>
        <_>
          <internalNodes>
            0 -1 976 -1.1843192623928189e-03</internalNodes>
          <leafValues>
            -2.3998636007308960e-01 8.4080420434474945e-02</leafValues></_>
        <_>
          <internalNodes>
            0 -1 809 1.0500284406589344e-04</internalNodes>
          <leafValues>
            -1.1727943271398544e-01 1.8361797928810120e-01</leafValues></_>
        <_>
          <internalNodes>
            0 -1 968 -5.8218818157911301e-03</internalNodes>
          <leafValues>
            -4.7437748312950134e-01 4.6049740165472031e-02</leafValues></_>
        <_>
          <internalNodes>
            0 -1 774 1.6759493155404925e-04</internalNodes>
          <leafValues>
            -1.1309926211833954e-01 1.9193108379840851e-01</leafValues></_>
        <_>
          <internalNodes>
            0 -1 711 -2.4072506930679083e-03</internalNodes>
          <leafValues>
            1.4243941009044647e-01 -1.5580318868160248e-01</leafValues></_>
        <_>
          <internalNodes>
            0 -1 548 -7.2362758219242096e-03</internalNodes>
          <leafValues>
            5.5315262079238892e-01 -3.7961550056934357e-02</leafValues></_>
        <_>
          <internalNodes>
            0 -1 606 1.1338839540258050e-03</internalNodes>
          <leafValues>
            7.6231993734836578e-02 -3.0837020277976990e-01</leafValues></_>
        <_>
          <internalNodes>
            0 -1 400 -1.0653962381184101e-03</internalNodes>
          <leafValues>
            -2.2526782751083374e-01 8.9870326220989227e-02</leafValues></_>
        <_>
          <internalNodes>
            0 -1 256 -8.5131868720054626e-02</internalNodes>
          <leafValues>
            2.5646978616714478e-01 -8.6004480719566345e-02</leafValues></_>
        <_>
          <internalNodes>
            0 -1 364 1.7222687602043152e-02</internalNodes>
          <leafValues>
            -1.5319369733333588e-01 1.6880781948566437e-01</leafValues></_>
        <_>
          <internalNodes>
            0 -1 729 -4.8464504070580006e-03</internalNodes>
          <leafValues>
            5.6713837385177612e-01 -3.8812562823295593e-02</leafValues></_>
        <_>
          <internalNodes>
            0 -1 324 -3.0629350803792477e-03</internalNodes>
          <leafValues>
            5.0953727960586548e-01 -3.7330199033021927e-02</leafValues></_>
        <_>
          <internalNodes>
            0 -1 710 -3.4878621809184551e-03</internalNodes>
          <leafValues>
            4.2473810911178589e-01 -4.3511535972356796e-02</leafValues></_>
        <_>
          <internalNodes>
            0 -1 968 2.0733685232698917e-03</internalNodes>
          <leafValues>
            7.3741219937801361e-02 -2.8830063343048096e-01</leafValues></_>
        <_>
          <internalNodes>
            0 -1 841 -4.7927751438692212e-04</internalNodes>
          <leafValues>
            -1.7299006879329681e-01 1.1672624200582504e-01</leafValues></_>
        <_>
          <internalNodes>
            0 -1 201 9.9632939964067191e-05</internalNodes>
          <leafValues>
            -1.5034373104572296e-01 1.3902319967746735e-01</leafValues></_>
        <_>
          <internalNodes>
            0 -1 13 3.2639492303133011e-02</internalNodes>
          <leafValues>
            3.9801005274057388e-02 -4.9607470631599426e-01</leafValues></_>
        <_>
          <internalNodes>
            0 -1 827 6.7697791382670403e-03</internalNodes>
          <leafValues>
            -3.6226790398359299e-02 6.6044044494628906e-01</leafValues></_>
        <_>
          <internalNodes>
            0 -1 641 -1.6707137227058411e-02</internalNodes>
          <leafValues>
            6.2406778335571289e-01 -2.5200359523296356e-02</leafValues></_>
        <_>
          <internalNodes>
            0 -1 474 1.6609840095043182e-02</internalNodes>
          <leafValues>
            -5.2681796252727509e-02 3.4841600060462952e-01</leafValues></_>
        <_>
          <internalNodes>
            0 -1 603 -3.5236561670899391e-03</internalNodes>
          <leafValues>
            -2.7708196640014648e-01 7.2919078171253204e-02</leafValues></_>
        <_>
          <internalNodes>
            0 -1 925 3.3121055457741022e-04</internalNodes>
          <leafValues>
            1.0481356829404831e-01 -1.7935279011726379e-01</leafValues></_>
        <_>
          <internalNodes>
            0 -1 696 3.3286362886428833e-03</internalNodes>
          <leafValues>
            -7.8364729881286621e-02 2.5124570727348328e-01</leafValues></_></weakClassifiers></_>
    <!-- stage 4 -->
    <_>
      <maxWeakCount>71</maxWeakCount>
      <stageThreshold>-1.2575811147689819e+00</stageThreshold>
      <weakClassifiers>
        <_>
          <internalNodes>
            0 -1 503 2.8351497650146484e-01</internalNodes>
          <leafValues>
            -2.2333332896232605e-01 5.8199357986450195e-01</leafValues></_>
        <_>
          <internalNodes>
            0 -1 992 -3.0148634687066078e-03</internalNodes>
          <leafValues>
            -4.6658447384834290e-01 6.5528064966201782e-02</leafValues></_>
        <_>
          <internalNodes>
            0 -1 987 -1.5366428997367620e-03</internalNodes>
          <leafValues>
            -3.4389722347259521e-01 1.5784868597984314e-01</leafValues></_>
        <_>
          <internalNodes>
            0 -1 240 -2.7681058272719383e-03</internalNodes>
          <leafValues>
            -4.3930500745773315e-01 6.9770336151123047e-02</leafValues></_>
        <_>
          <internalNodes>
            0 -1 240 3.0932209920138121e-03</internalNodes>
          <leafValues>
            1.5352399647235870e-01 -4.6595463156700134e-01</leafValues></_>
        <_>
          <internalNodes>
            0 -1 308 3.1756743788719177e-02</internalNodes>
          <leafValues>
            -1.3726365566253662e-01 2.9142910242080688e-01</leafValues></_>
        <_>
          <internalNodes>
            0 -1 982 7.5029936851933599e-04</internalNodes>
          <leafValues>
            1.9369781017303467e-01 -1.8896012008190155e-01</leafValues></_>
        <_>
          <internalNodes>
            0 -1 805 2.7026966563425958e-04</internalNodes>
          <leafValues>
            6.2925510108470917e-02 -2.9567861557006836e-01</leafValues></_>
        <_>
          <internalNodes>
            0 -1 221 2.2708569304086268e-04</internalNodes>
          <leafValues>
            -1.1256225407123566e-01 2.0967514812946320e-01</leafValues></_>
        <_>
          <internalNodes>
            0 -1 19 1.4454126358032227e-02</internalNodes>
          <leafValues>
            7.3488689959049225e-02 -3.4237307310104370e-01</leafValues></_>
        <_>
          <internalNodes>
            0 -1 21 -1.3356650248169899e-02</internalNodes>
          <leafValues>
            -3.6596792936325073e-01 7.4947163462638855e-02</leafValues></_>
        <_>
          <internalNodes>
            0 -1 648 4.4338018633425236e-03</internalNodes>
          <leafValues>
            -6.7828722298145294e-02 4.3320801854133606e-01</leafValues></_>
        <_>
          <internalNodes>
            0 -1 653 -1.2682916130870581e-03</internalNodes>
          <leafValues>
            2.4962455034255981e-01 -1.0244861990213394e-01</leafValues></_>
        <_>
          <internalNodes>
            0 -1 997 -3.1066441442817450e-04</internalNodes>
          <leafValues>
            -2.4743393063545227e-01 1.0996384918689728e-01</leafValues></_>
        <_>
          <internalNodes>
            0 -1 443 4.8957601189613342e-02</internalNodes>
          <leafValues>
            3.3089492470026016e-02 -4.7175109386444092e-01</leafValues></_>
        <_>
          <internalNodes>
            0 -1 635 4.5898375101387501e-03</internalNodes>
          <leafValues>
            -5.9132236987352371e-02 3.6958479881286621e-01</leafValues></_>
        <_>
          <internalNodes>
            0 -1 687 -5.6647378951311111e-03</internalNodes>
          <leafValues>
            2.0041410624980927e-01 -1.0172892361879349e-01</leafValues></_>
        <_>
          <internalNodes>
            0 -1 700 -2.4852529168128967e-03</internalNodes>
          <leafValues>
            -2.6708808541297913e-01 7.2465255856513977e-02</leafValues></_>
        <_>
          <internalNodes>
            0 -1 608 -1.4064713614061475e-03</internalNodes>
          <leafValues>
            -2.5681015849113464e-01 8.5171177983283997e-02</leafValues></_>
        <_>
          <internalNodes>
            0 -1 122 -2.8110665082931519e-01</internalNodes>
          <leafValues>
            5.8538526296615601e-01 -3.7326227873563766e-02</leafValues></_>
        <_>
          <internalNodes>
            0 -1 826 -1.3765885960310698e-03</internalNodes>
          <leafValues>
            1.5577559173107147e-01 -1.4455311000347137e-01</leafValues></_>
        <_>
          <internalNodes>
            0 -1 376 -4.8826811835169792e-03</internalNodes>
          <leafValues>
            3.5513851046562195e-01 -5.3368572145700455e-02</leafValues></_>
        <_>
          <internalNodes>
            0 -1 80 -5.9288705233484507e-04</internalNodes>
          <leafValues>
            -2.7677893638610840e-01 7.9690359532833099e-02</leafValues></_>
        <_>
          <internalNodes>
            0 -1 269 4.6014534309506416e-03</internalNodes>
          <leafValues>
            -9.6572868525981903e-02 2.0783394575119019e-01</leafValues></_>
        <_>
          <internalNodes>
            0 -1 995 -8.8087038602679968e-04</internalNodes>
          <leafValues>
            -2.2383712232112885e-01 8.2933895289897919e-02</leafValues></_>
        <_>
          <internalNodes>
            0 -1 463 8.2795377820730209e-03</internalNodes>
          <leafValues>
            -9.5854781568050385e-02 2.1741434931755066e-01</leafValues></_>
        <_>
          <internalNodes>
            0 -1 966 1.5041991136968136e-03</internalNodes>
          <leafValues>
            4.3816767632961273e-02 -3.8502535223960876e-01</leafValues></_>
        <_>
          <internalNodes>
            0 -1 660 -2.9232332017272711e-03</internalNodes>
          <leafValues>
            1.7860932648181915e-01 -1.0550744831562042e-01</leafValues></_>
        <_>
          <internalNodes>
            0 -1 555 4.5785848051309586e-03</internalNodes>
          <leafValues>
            -4.9692489206790924e-02 3.8771519064903259e-01</leafValues></_>
        <_>
          <internalNodes>
            0 -1 418 -9.0286433696746826e-03</internalNodes>
          <leafValues>
            5.8853763341903687e-01 -2.4961410090327263e-02</leafValues></_>
        <_>
          <internalNodes>
            0 -1 949 8.8088642805814743e-03</internalNodes>
          <leafValues>
            4.9999915063381195e-02 -3.7704247236251831e-01</leafValues></_>
        <_>
          <internalNodes>
            0 -1 165 -2.5241067633032799e-03</internalNodes>
          <leafValues>
            -3.0879014730453491e-01 5.0891626626253128e-02</leafValues></_>
        <_>
          <internalNodes>
            0 -1 165 2.9009433928877115e-03</internalNodes>
          <leafValues>
            5.7573471218347549e-02 -3.1270912289619446e-01</leafValues></_>
        <_>
          <internalNodes>
            0 -1 409 1.5858440892770886e-03</internalNodes>
          <leafValues>
            -9.1655172407627106e-02 2.2091323137283325e-01</leafValues></_>
        <_>
          <internalNodes>
            0 -1 661 1.6944358125329018e-02</internalNodes>
          <leafValues>
            5.6035436689853668e-02 -3.6159795522689819e-01</leafValues></_>
        <_>
          <internalNodes>
            0 -1 114 7.6462579891085625e-03</internalNodes>
          <leafValues>
            -9.0742558240890503e-02 2.0674346387386322e-01</leafValues></_>
        <_>
          <internalNodes>
            0 -1 40 3.8097181823104620e-03</internalNodes>
          <leafValues>
            6.6027127206325531e-02 -2.7188876271247864e-01</leafValues></_>
        <_>
          <internalNodes>
            0 -1 514 -1.0664184810593724e-03</internalNodes>
          <leafValues>
            1.8934735655784607e-01 -1.0169135034084320e-01</leafValues></_>
        <_>
          <internalNodes>
            0 -1 824 5.2716128266183659e-05</internalNodes>
          <leafValues>
            -1.3125905394554138e-01 1.3950264453887939e-01</leafValues></_>
        <_>
          <internalNodes>
            0 -1 138 1.5759186353534460e-03</internalNodes>
          <leafValues>
            8.2785904407501221e-02 -2.1396593749523163e-01</leafValues></_>
        <_>
          <internalNodes>
            0 -1 783 -9.0708417701534927e-05</internalNodes>
          <leafValues>
            1.3834361732006073e-01 -1.3153767585754395e-01</leafValues></_>
        <_>
          <internalNodes>
            0 -1 754 -4.6466691419482231e-03</internalNodes>
          <leafValues>
            1.7941157519817352e-01 -9.8257116973400116e-02</leafValues></_>
        <_>
          <internalNodes>
            0 -1 150 -7.3842226993292570e-04</internalNodes>
          <leafValues>
            -2.8691899776458740e-01 5.9276316314935684e-02</leafValues></_>
        <_>
          <internalNodes>
            0 -1 539 -4.1880984790623188e-03</internalNodes>
          <leafValues>
            5.6786668300628662e-01 -3.3095899969339371e-02</leafValues></_>
        <_>
          <internalNodes>
            0 -1 781 -5.7095424272119999e-03</internalNodes>
          <leafValues>
            5.2108395099639893e-01 -3.0648719519376755e-02</leafValues></_>
        <_>
          <internalNodes>
            0 -1 420 4.9177244305610657e-02</internalNodes>
          <leafValues>
            -7.0407807826995850e-02 2.4785323441028595e-01</leafValues></_>
        <_>
          <internalNodes>
            0 -1 387 -3.9500221610069275e-03</internalNodes>
          <leafValues>
            5.1079189777374268e-01 -3.5360924899578094e-02</leafValues></_>
        <_>
          <internalNodes>
            0 -1 575 1.6333061456680298e-01</internalNodes>
          <leafValues>
            -1.7137778922915459e-02 8.8236296176910400e-01</leafValues></_>
        <_>
          <internalNodes>
            0 -1 100 6.0687018558382988e-03</internalNodes>
          <leafValues>
            4.3858252465724945e-02 -4.5490583777427673e-01</leafValues></_>
        <_>
          <internalNodes>
            0 -1 55 -1.3590262969955802e-03</internalNodes>
          <leafValues>
            2.0302920043468475e-01 -9.3828707933425903e-02</leafValues></_>
        <_>
          <internalNodes>
            0 -1 24 3.2582063227891922e-02</internalNodes>
          <leafValues>
            -1.0723230242729187e-01 1.6082464158535004e-01</leafValues></_>
        <_>
          <internalNodes>
            0 -1 801 -9.0247392654418945e-03</internalNodes>
          <leafValues>
            -3.8137269020080566e-01 4.5449167490005493e-02</leafValues></_>
        <_>
          <internalNodes>
            0 -1 370 -4.0642255917191505e-03</internalNodes>
          <leafValues>
            5.4876512289047241e-01 -3.3117156475782394e-02</leafValues></_>
        <_>
          <internalNodes>
            0 -1 657 1.4916526153683662e-02</internalNodes>
          <leafValues>
            -3.6705374717712402e-02 4.4294649362564087e-01</leafValues></_>
        <_>
          <internalNodes>
            0 -1 898 -7.3843490099534392e-05</internalNodes>
          <leafValues>
            -1.5329739451408386e-01 1.1417644470930099e-01</leafValues></_>
        <_>
          <internalNodes>
            0 -1 860 -6.2327133491635323e-03</internalNodes>
          <leafValues>
            8.0355072021484375e-01 -2.0605087280273438e-02</leafValues></_>
        <_>
          <internalNodes>
            0 -1 335 3.5942528396844864e-02</internalNodes>
          <leafValues>
            -4.0727969259023666e-02 3.5363021492958069e-01</leafValues></_>
        <_>
          <internalNodes>
            0 -1 690 1.2418751139193773e-03</internalNodes>
          <leafValues>
            -1.2652152776718140e-01 1.3651899993419647e-01</leafValues></_>
        <_>
          <internalNodes>
            0 -1 495 5.8969184465240687e-05</internalNodes>
          <leafValues>
            -1.2165912240743637e-01 1.4496439695358276e-01</leafValues></_>
        <_>
          <internalNodes>
            0 -1 935 8.8448883616365492e-05</internalNodes>
          <leafValues>
            1.0680449008941650e-01 -1.6087312996387482e-01</leafValues></_>
        <_>
          <internalNodes>
            0 -1 726 1.5975750982761383e-02</internalNodes>
          <leafValues>
            -3.6286108195781708e-02 5.6764477491378784e-01</leafValues></_>
        <_>
          <internalNodes>
            0 -1 279 3.9305519312620163e-03</internalNodes>
          <leafValues>
            -2.5284497067332268e-02 5.7509291172027588e-01</leafValues></_>
        <_>
          <internalNodes>
            0 -1 290 -2.7001565322279930e-03</internalNodes>
          <leafValues>
            -2.9536184668540955e-01 6.4116597175598145e-02</leafValues></_>
        <_>
          <internalNodes>
            0 -1 340 -6.4893187955021858e-03</internalNodes>
          <leafValues>
            -3.0915391445159912e-01 5.0847470760345459e-02</leafValues></_>
        <_>
          <internalNodes>
            0 -1 671 1.5160387192736380e-05</internalNodes>
          <leafValues>
            -1.2884852290153503e-01 1.3106355071067810e-01</leafValues></_>
        <_>
          <internalNodes>
            0 -1 589 5.9206038713455200e-03</internalNodes>
          <leafValues>
            -2.6077920570969582e-02 6.2645548582077026e-01</leafValues></_>
        <_>
          <internalNodes>
            0 -1 593 -9.6468597650527954e-02</internalNodes>
          <leafValues>
            7.3185783624649048e-01 -1.7906131222844124e-02</leafValues></_>
        <_>
          <internalNodes>
            0 -1 234 -6.2187269330024719e-02</internalNodes>
          <leafValues>
            8.6515319347381592e-01 -1.4575410634279251e-02</leafValues></_>
        <_>
          <internalNodes>
            0 -1 48 8.6643226444721222e-02</internalNodes>
          <leafValues>
            2.0150609314441681e-02 -9.3645125627517700e-01</leafValues></_>
        <_>
          <internalNodes>
            0 -1 836 -2.5661359541118145e-04</internalNodes>
          <leafValues>
            1.2564067542552948e-01 -1.2113780528306961e-01</leafValues></_>
        <_>
          <internalNodes>
            0 -1 863 -4.7636944800615311e-03</internalNodes>
          <leafValues>
            -2.2018674015998840e-01 7.9885594546794891e-02</leafValues></_></weakClassifiers></_>
    <!-- stage 5 -->
    <_>
      <maxWeakCount>100</maxWeakCount>
      <stageThreshold>-1.1660763025283813e+00</stageThreshold>
      <weakClassifiers>
        <_>
          <internalNodes>
            0 -1 210 3.0822539329528809e-01</internalNodes>
          <leafValues>
            -2.1563431620597839e-01 5.5479454994201660e-01</leafValues></_>
        <_>
          <internalNodes>
            0 -1 210 3.0810421705245972e-01</internalNodes>
          <leafValues>
            -3.1660920940339565e-03 -1.</leafValues></_>
        <_>
          <internalNodes>
            0 -1 210 3.0803060531616211e-01</internalNodes>
          <leafValues>
            -4.2248627869412303e-04 1.</leafValues></_>
        <_>
          <internalNodes>
            0 -1 210 3.0731290578842163e-01</internalNodes>
          <leafValues>
            1.0917030740529299e-03 -1.</leafValues></_>
        <_>
          <internalNodes>
            0 -1 210 3.0642336606979370e-01</internalNodes>
          <leafValues>
            -4.2283255606889725e-04 1.</leafValues></_>
        <_>
          <internalNodes>
            0 -1 210 3.0469971895217896e-01</internalNodes>
          <leafValues>
            8.2034454680979252e-04 -1.</leafValues></_>
        <_>
          <internalNodes>
            0 -1 210 3.0174684524536133e-01</internalNodes>
          <leafValues>
            -2.4222356732934713e-03 9.9123585224151611e-01</leafValues></_>
        <_>
          <internalNodes>
            0 -1 210 3.0146116018295288e-01</internalNodes>
          <leafValues>
            2.7404294814914465e-04 -1.</leafValues></_>
        <_>
          <internalNodes>
            0 -1 210 3.0078846216201782e-01</internalNodes>
          <leafValues>
            -4.2571304948069155e-04 1.</leafValues></_>
        <_>
          <internalNodes>
            0 -1 210 2.9967248439788818e-01</internalNodes>
          <leafValues>
            8.2304526586085558e-04 -1.</leafValues></_>
        <_>
          <internalNodes>
            0 -1 210 2.9945451021194458e-01</internalNodes>
          <leafValues>
            -4.2607565410435200e-04 1.</leafValues></_>
        <_>
          <internalNodes>
            0 -1 210 2.9907009005546570e-01</internalNodes>
          <leafValues>
            2.7464979211799800e-04 -1.</leafValues></_>
        <_>
          <internalNodes>
            0 -1 210 2.9860538244247437e-01</internalNodes>
          <leafValues>
            -4.2643921915441751e-04 1.</leafValues></_>
        <_>
          <internalNodes>
            0 -1 210 2.9807156324386597e-01</internalNodes>
          <leafValues>
            5.4975261446088552e-04 -1.</leafValues></_>
        <_>
          <internalNodes>
            0 -1 210 2.9778003692626953e-01</internalNodes>
          <leafValues>
            -8.5397093789651990e-04 1.</leafValues></_>
        <_>
          <internalNodes>
            0 -1 210 2.9720291495323181e-01</internalNodes>
          <leafValues>
            8.2576362183317542e-04 -1.</leafValues></_>
        <_>
          <internalNodes>
            0 -1 210 2.9526966810226440e-01</internalNodes>
          <leafValues>
            -1.7123285215348005e-03 1.</leafValues></_>
        <_>
          <internalNodes>
            0 -1 210 2.9484051465988159e-01</internalNodes>
          <leafValues>
            8.2712818402796984e-04 -1.</leafValues></_>
        <_>
          <internalNodes>
            0 -1 210 2.9430449008941650e-01</internalNodes>
          <leafValues>
            -8.5836893413215876e-04 1.</leafValues></_>
        <_>
          <internalNodes>
            0 -1 210 2.9359328746795654e-01</internalNodes>
          <leafValues>
            5.5218092165887356e-04 -1.</leafValues></_>
        <_>
          <internalNodes>
            0 -1 210 2.9297661781311035e-01</internalNodes>
          <leafValues>
            -4.2973781819455326e-04 1.</leafValues></_>
        <_>
          <internalNodes>
            0 -1 210 2.9108923673629761e-01</internalNodes>
          <leafValues>
            5.5279157822951674e-04 -1.</leafValues></_>
        <_>
          <internalNodes>
            0 -1 210 2.9101973772048950e-01</internalNodes>
          <leafValues>
            -4.3010746594518423e-04 1.</leafValues></_>
        <_>
          <internalNodes>
            0 -1 210 2.8946679830551147e-01</internalNodes>
          <leafValues>
            8.3033490227535367e-04 -1.</leafValues></_>
        <_>
          <internalNodes>
            0 -1 210 2.7780646085739136e-01</internalNodes>
          <leafValues>
            -6.9394614547491074e-03 9.5821100473403931e-01</leafValues></_>
        <_>
          <internalNodes>
            0 -1 210 2.7686062455177307e-01</internalNodes>
          <leafValues>
            8.3670869935303926e-04 -1.</leafValues></_>
        <_>
          <internalNodes>
            0 -1 210 2.7512136101722717e-01</internalNodes>
          <leafValues>
            -1.7590147908776999e-03 1.</leafValues></_>
        <_>
          <internalNodes>
            0 -1 30 -1.1217857245355844e-03</internalNodes>
          <leafValues>
            -3.7763512134552002e-01 9.0132296085357666e-02</leafValues></_>
        <_>
          <internalNodes>
            0 -1 30 1.5755186323076487e-03</internalNodes>
          <leafValues>
            8.6454242467880249e-02 -3.5335636138916016e-01</leafValues></_>
        <_>
          <internalNodes>
            0 -1 907 -1.8296894268132746e-04</internalNodes>
          <leafValues>
            -2.8526651859283447e-01 6.0293957591056824e-02</leafValues></_>
        <_>
          <internalNodes>
            0 -1 907 1.1655859998427331e-04</internalNodes>
          <leafValues>
            2.0603711903095245e-01 -2.4732787907123566e-01</leafValues></_>
        <_>
          <internalNodes>
            0 -1 688 -2.2775651887059212e-03</internalNodes>
          <leafValues>
            3.1823921203613281e-01 -1.1293175071477890e-01</leafValues></_>
        <_>
          <internalNodes>
            0 -1 46 3.1754046678543091e-02</internalNodes>
          <leafValues>
            -9.6474230289459229e-02 2.0836728811264038e-01</leafValues></_>
        <_>
          <internalNodes>
            0 -1 907 -3.9630118408240378e-05</internalNodes>
          <leafValues>
            -1.5967305004596710e-01 1.3609881699085236e-01</leafValues></_>
        <_>
          <internalNodes>
            0 -1 431 7.0864185690879822e-03</internalNodes>
          <leafValues>
            -9.0374544262886047e-02 2.5556355714797974e-01</leafValues></_>
        <_>
          <internalNodes>
            0 -1 936 2.4611485423520207e-04</internalNodes>
          <leafValues>
            8.0432467162609100e-02 -2.9146209359169006e-01</leafValues></_>
        <_>
          <internalNodes>
            0 -1 590 -6.5181852551177144e-04</internalNodes>
          <leafValues>
            2.1139016747474670e-01 -9.7190931439399719e-02</leafValues></_>
        <_>
          <internalNodes>
            0 -1 622 5.3259143605828285e-03</internalNodes>
          <leafValues>
            -6.0123004019260406e-02 3.1894826889038086e-01</leafValues></_>
        <_>
          <internalNodes>
            0 -1 704 1.6450665891170502e-02</internalNodes>
          <leafValues>
            2.0932933315634727e-02 -6.6793042421340942e-01</leafValues></_>
        <_>
          <internalNodes>
            0 -1 817 -7.3916118708439171e-05</internalNodes>
          <leafValues>
            1.4690434932708740e-01 -1.3254337012767792e-01</leafValues></_>
        <_>
          <internalNodes>
            0 -1 993 -2.8681801632046700e-03</internalNodes>
          <leafValues>
            -2.6345074176788330e-01 8.0608345568180084e-02</leafValues></_>
        <_>
          <internalNodes>
            0 -1 298 -4.9060247838497162e-03</internalNodes>
          <leafValues>
            -2.8863000869750977e-01 5.6494619697332382e-02</leafValues></_>
        <_>
          <internalNodes>
            0 -1 540 -2.5770625099539757e-02</internalNodes>
          <leafValues>
            3.1343343853950500e-01 -6.1447422951459885e-02</leafValues></_>
        <_>
          <internalNodes>
            0 -1 599 4.3511893600225449e-03</internalNodes>
          <leafValues>
            -5.0372365862131119e-02 3.3729633688926697e-01</leafValues></_>
        <_>
          <internalNodes>
            0 -1 241 7.4143968522548676e-03</internalNodes>
          <leafValues>
            3.6581568419933319e-02 -4.9161064624786377e-01</leafValues></_>
        <_>
          <internalNodes>
            0 -1 753 5.4788831621408463e-03</internalNodes>
          <leafValues>
            -4.5063760131597519e-02 3.9384058117866516e-01</leafValues></_>
        <_>
          <internalNodes>
            0 -1 987 -2.8700781986117363e-03</internalNodes>
          <leafValues>
            -2.6894667744636536e-01 6.7459717392921448e-02</leafValues></_>
        <_>
          <internalNodes>
            0 -1 501 -5.1344167441129684e-02</internalNodes>
          <leafValues>
            -5.4745173454284668e-01 2.8886824846267700e-02</leafValues></_>
        <_>
          <internalNodes>
            0 -1 5 1.4307941455626860e-05</internalNodes>
          <leafValues>
            -1.4771458506584167e-01 1.1262544244527817e-01</leafValues></_>
        <_>
          <internalNodes>
            0 -1 383 -1.5862898901104927e-02</internalNodes>
          <leafValues>
            1.7015382647514343e-01 -9.5334559679031372e-02</leafValues></_>
        <_>
          <internalNodes>
            0 -1 266 9.8909605294466019e-03</internalNodes>
          <leafValues>
            -7.2683617472648621e-02 2.1261632442474365e-01</leafValues></_>
        <_>
          <internalNodes>
            0 -1 980 -1.3408928643912077e-03</internalNodes>
          <leafValues>
            -2.6455691456794739e-01 6.3983760774135590e-02</leafValues></_>
        <_>
          <internalNodes>
            0 -1 505 5.3684622980654240e-03</internalNodes>
          <leafValues>
            -3.3605597913265228e-02 5.4126369953155518e-01</leafValues></_>
        <_>
          <internalNodes>
            0 -1 149 -7.5939530506730080e-03</internalNodes>
          <leafValues>
            1.9440309703350067e-01 -7.7728837728500366e-02</leafValues></_>
        <_>
          <internalNodes>
            0 -1 448 -1.6185391694307327e-02</internalNodes>
          <leafValues>
            -4.2398482561111450e-01 4.1530806571245193e-02</leafValues></_>
        <_>
          <internalNodes>
            0 -1 968 -6.1707245185971260e-04</internalNodes>
          <leafValues>
            -2.1325421333312988e-01 7.2913646697998047e-02</leafValues></_>
        <_>
          <internalNodes>
            0 -1 713 1.4005065895617008e-03</internalNodes>
          <leafValues>
            -1.0651583224534988e-01 1.4726909995079041e-01</leafValues></_>
        <_>
          <internalNodes>
            0 -1 15 3.0685935169458389e-02</internalNodes>
          <leafValues>
            3.9957534521818161e-02 -4.4587993621826172e-01</leafValues></_>
        <_>
          <internalNodes>
            0 -1 511 -4.3518855236470699e-03</internalNodes>
          <leafValues>
            2.5769701600074768e-01 -6.4886890351772308e-02</leafValues></_>
        <_>
          <internalNodes>
            0 -1 744 -3.2960437238216400e-03</internalNodes>
          <leafValues>
            -2.5085800886154175e-01 5.9485472738742828e-02</leafValues></_>
        <_>
          <internalNodes>
            0 -1 737 -7.0322728715837002e-03</internalNodes>
          <leafValues>
            2.3224329948425293e-01 -7.4011914432048798e-02</leafValues></_>
        <_>
          <internalNodes>
            0 -1 113 -3.5643577575683594e-01</internalNodes>
          <leafValues>
            -8.3485138416290283e-01 1.7777219414710999e-02</leafValues></_>
        <_>
          <internalNodes>
            0 -1 485 -2.8041745536029339e-03</internalNodes>
          <leafValues>
            1.4017421007156372e-01 -1.1898875981569290e-01</leafValues></_>
        <_>
          <internalNodes>
            0 -1 766 4.7371019609272480e-03</internalNodes>
          <leafValues>
            3.9078775793313980e-02 -3.9512434601783752e-01</leafValues></_>
        <_>
          <internalNodes>
            0 -1 70 3.9912513457238674e-03</internalNodes>
          <leafValues>
            -3.6909654736518860e-02 4.4227045774459839e-01</leafValues></_>
        <_>
          <internalNodes>
            0 -1 489 2.2430993616580963e-02</internalNodes>
          <leafValues>
            4.8192385584115982e-02 -3.5541960597038269e-01</leafValues></_>
        <_>
          <internalNodes>
            0 -1 83 2.0409491844475269e-03</internalNodes>
          <leafValues>
            5.6963775306940079e-02 -2.5940087437629700e-01</leafValues></_>
        <_>
          <internalNodes>
            0 -1 714 4.8984503373503685e-03</internalNodes>
          <leafValues>
            -3.7643834948539734e-02 4.1530734300613403e-01</leafValues></_>
        <_>
          <internalNodes>
            0 -1 432 -5.9947404079139233e-03</internalNodes>
          <leafValues>
            6.1788576841354370e-01 -2.2675797343254089e-02</leafValues></_>
        <_>
          <internalNodes>
            0 -1 108 2.1245111711323261e-03</internalNodes>
          <leafValues>
            6.3050270080566406e-02 -2.5771969556808472e-01</leafValues></_>
        <_>
          <internalNodes>
            0 -1 345 1.3888618013879750e-05</internalNodes>
          <leafValues>
            -1.1412908881902695e-01 1.3444842398166656e-01</leafValues></_>
        <_>
          <internalNodes>
            0 -1 577 6.8582603707909584e-03</internalNodes>
          <leafValues>
            -2.0483221858739853e-02 6.9100564718246460e-01</leafValues></_>
        <_>
          <internalNodes>
            0 -1 393 -3.5334925632923841e-04</internalNodes>
          <leafValues>
            -1.4445909857749939e-01 1.0240422934293747e-01</leafValues></_>
        <_>
          <internalNodes>
            0 -1 697 4.2733075097203255e-03</internalNodes>
          <leafValues>
            -1.0476168990135193e-01 1.4275880157947540e-01</leafValues></_>
        <_>
          <internalNodes>
            0 -1 930 -1.1791534780059010e-04</internalNodes>
          <leafValues>
            -1.5155349671840668e-01 9.4111941754817963e-02</leafValues></_>
        <_>
          <internalNodes>
            0 -1 663 6.5900953486561775e-03</internalNodes>
          <leafValues>
            -4.9695841968059540e-02 3.3379140496253967e-01</leafValues></_>
        <_>
          <internalNodes>
            0 -1 969 -8.7121063843369484e-03</internalNodes>
          <leafValues>
            -3.9274764060974121e-01 3.8407057523727417e-02</leafValues></_>
        <_>
          <internalNodes>
            0 -1 78 1.2282930314540863e-01</internalNodes>
          <leafValues>
            -4.2401194572448730e-02 3.7311092019081116e-01</leafValues></_>
        <_>
          <internalNodes>
            0 -1 161 8.1655234098434448e-03</internalNodes>
          <leafValues>
            7.8963302075862885e-02 -2.0270635187625885e-01</leafValues></_>
        <_>
          <internalNodes>
            0 -1 513 8.1983022391796112e-04</internalNodes>
          <leafValues>
            -9.0415857732295990e-02 1.6594009101390839e-01</leafValues></_>
        <_>
          <internalNodes>
            0 -1 142 -5.6661793496459723e-04</internalNodes>
          <leafValues>
            -1.7136387526988983e-01 8.5642658174037933e-02</leafValues></_>
        <_>
          <internalNodes>
            0 -1 560 4.0221153758466244e-03</internalNodes>
          <leafValues>
            5.2350319921970367e-02 -2.5788190960884094e-01</leafValues></_>
        <_>
          <internalNodes>
            0 -1 496 2.3283014888875186e-04</internalNodes>
          <leafValues>
            -9.1652922332286835e-02 1.6569399833679199e-01</leafValues></_>
        <_>
          <internalNodes>
            0 -1 246 3.6527127027511597e-02</internalNodes>
          <leafValues>
            5.8554094284772873e-02 -2.4249637126922607e-01</leafValues></_>
        <_>
          <internalNodes>
            0 -1 268 3.7808681372553110e-04</internalNodes>
          <leafValues>
            -1.0305932909250259e-01 1.4408406615257263e-01</leafValues></_>
        <_>
          <internalNodes>
            0 -1 792 -4.4619468972086906e-03</internalNodes>
          <leafValues>
            -3.3244940638542175e-01 4.2782541364431381e-02</leafValues></_>
        <_>
          <internalNodes>
            0 -1 840 6.1863446608185768e-03</internalNodes>
          <leafValues>
            -4.8792317509651184e-02 3.0151271820068359e-01</leafValues></_>
        <_>
          <internalNodes>
            0 -1 755 7.9943187534809113e-02</internalNodes>
          <leafValues>
            1.8312815576791763e-02 -9.2370533943176270e-01</leafValues></_>
        <_>
          <internalNodes>
            0 -1 654 1.3447705656290054e-02</internalNodes>
          <leafValues>
            -4.8102028667926788e-02 3.1197246909141541e-01</leafValues></_>
        <_>
          <internalNodes>
            0 -1 936 -1.7985277809202671e-03</internalNodes>
          <leafValues>
            -3.9096462726593018e-01 3.9367791265249252e-02</leafValues></_>
        <_>
          <internalNodes>
            0 -1 127 6.3190702348947525e-05</internalNodes>
          <leafValues>
            -1.1353108286857605e-01 1.2953107059001923e-01</leafValues></_>
        <_>
          <internalNodes>
            0 -1 401 1.9280143082141876e-02</internalNodes>
          <leafValues>
            -9.3051679432392120e-02 1.6256783902645111e-01</leafValues></_>
        <_>
          <internalNodes>
            0 -1 326 -1.6598339378833771e-01</internalNodes>
          <leafValues>
            4.1016486287117004e-01 -3.8456704467535019e-02</leafValues></_>
        <_>
          <internalNodes>
            0 -1 91 8.6145192384719849e-02</internalNodes>
          <leafValues>
            -1.2518948316574097e-01 1.3903599977493286e-01</leafValues></_>
        <_>
          <internalNodes>
            0 -1 923 -9.0745389461517334e-03</internalNodes>
          <leafValues>
            7.9590433835983276e-01 -2.0562665536999702e-02</leafValues></_>
        <_>
          <internalNodes>
            0 -1 238 1.4717490412294865e-03</internalNodes>
          <leafValues>
            5.3050633519887924e-02 -2.8338646888732910e-01</leafValues></_>
        <_>
          <internalNodes>
            0 -1 386 1.0160756064578891e-03</internalNodes>
          <leafValues>
            -5.6370042264461517e-02 2.7237412333488464e-01</leafValues></_>
        <_>
          <internalNodes>
            0 -1 976 2.1991590037941933e-03</internalNodes>
          <leafValues>
            6.0425415635108948e-02 -2.5705227255821228e-01</leafValues></_>
        <_>
          <internalNodes>
            0 -1 858 -5.7980245910584927e-03</internalNodes>
          <leafValues>
            5.9514003992080688e-01 -2.7007965371012688e-02</leafValues></_>
        <_>
          <internalNodes>
            0 -1 351 7.5411364436149597e-02</internalNodes>
          <leafValues>
            -4.5116379857063293e-02 2.9987180233001709e-01</leafValues></_></weakClassifiers></_>
    <!-- stage 6 -->
    <_>
      <maxWeakCount>62</maxWeakCount>
      <stageThreshold>-1.1361997127532959e+00</stageThreshold>
      <weakClassifiers>
        <_>
          <internalNodes>
            0 -1 258 3.5214537382125854e-01</internalNodes>
          <leafValues>
            -2.4060913920402527e-01 6.2359547615051270e-01</leafValues></_>
        <_>
          <internalNodes>
            0 -1 3 -4.2451068293303251e-04</internalNodes>
          <leafValues>
            -4.3335184454917908e-01 7.6834417879581451e-02</leafValues></_>
        <_>
          <internalNodes>
            0 -1 968 1.1687295045703650e-03</internalNodes>
          <leafValues>
            1.1407013237476349e-01 -3.6030849814414978e-01</leafValues></_>
        <_>
          <internalNodes>
            0 -1 968 -1.6014288412407041e-03</internalNodes>
          <leafValues>
            -4.7446712851524353e-01 2.1295142173767090e-01</leafValues></_>
        <_>
          <internalNodes>
            0 -1 97 1.7192001687362790e-03</internalNodes>
          <leafValues>
            1.0388756543397903e-01 -2.9463016986846924e-01</leafValues></_>
        <_>
          <internalNodes>
            0 -1 74 4.4871583580970764e-02</internalNodes>
          <leafValues>
            -1.5683303773403168e-01 2.2278885543346405e-01</leafValues></_>
        <_>
          <internalNodes>
            0 -1 133 -1.7251084791496396e-03</internalNodes>
          <leafValues>
            -2.9420182108879089e-01 1.1567290127277374e-01</leafValues></_>
        <_>
          <internalNodes>
            0 -1 3 1.9130582222715020e-04</internalNodes>
          <leafValues>
            1.3227681815624237e-01 -1.8076030910015106e-01</leafValues></_>
        <_>
          <internalNodes>
            0 -1 956 1.5529457596130669e-04</internalNodes>
          <leafValues>
            1.0838857293128967e-01 -2.1677687764167786e-01</leafValues></_>
        <_>
          <internalNodes>
            0 -1 214 -1.8688023090362549e-02</internalNodes>
          <leafValues>
            2.7907669544219971e-01 -7.9148106276988983e-02</leafValues></_>
        <_>
          <internalNodes>
            0 -1 798 -4.0254034684039652e-04</internalNodes>
          <leafValues>
            -1.8944860994815826e-01 1.1033872514963150e-01</leafValues></_>
        <_>
          <internalNodes>
            0 -1 634 -1.0993849486112595e-02</internalNodes>
          <leafValues>
            5.8887362480163574e-01 -3.6128580570220947e-02</leafValues></_>
        <_>
          <internalNodes>
            0 -1 625 3.9423787966370583e-03</internalNodes>
          <leafValues>
            -9.7345508635044098e-02 2.2570250928401947e-01</leafValues></_>
        <_>
          <internalNodes>
            0 -1 229 -1.1622154153883457e-02</internalNodes>
          <leafValues>
            1.9495798647403717e-01 -1.0329201817512512e-01</leafValues></_>
        <_>
          <internalNodes>
            0 -1 776 6.9926436990499496e-03</internalNodes>
          <leafValues>
            -8.9242242276668549e-02 2.3350489139556885e-01</leafValues></_>
        <_>
          <internalNodes>
            0 -1 948 1.0766036808490753e-02</internalNodes>
          <leafValues>
            3.5521164536476135e-02 -6.3142055273056030e-01</leafValues></_>
        <_>
          <internalNodes>
            0 -1 299 -9.2999450862407684e-04</internalNodes>
          <leafValues>
            -1.8038795888423920e-01 1.0475180298089981e-01</leafValues></_>
        <_>
          <internalNodes>
            0 -1 887 3.5549301654100418e-02</internalNodes>
          <leafValues>
            -4.5972973108291626e-02 4.2290988564491272e-01</leafValues></_>
        <_>
          <internalNodes>
            0 -1 916 3.8484206015709788e-05</internalNodes>
          <leafValues>
            1.1637198925018311e-01 -1.7778779566287994e-01</leafValues></_>
        <_>
          <internalNodes>
            0 -1 926 8.5230320692062378e-03</internalNodes>
          <leafValues>
            5.8888044208288193e-02 -3.1523045897483826e-01</leafValues></_>
        <_>
          <internalNodes>
            0 -1 596 3.0233764555305243e-03</internalNodes>
          <leafValues>
            -9.8353974521160126e-02 2.0458029210567474e-01</leafValues></_>
        <_>
          <internalNodes>
            0 -1 583 1.0774468630552292e-01</internalNodes>
          <leafValues>
            -3.5300895571708679e-02 5.5573469400405884e-01</leafValues></_>
        <_>
          <internalNodes>
            0 -1 471 9.7583960741758347e-03</internalNodes>
          <leafValues>
            -4.7076910734176636e-02 3.4988081455230713e-01</leafValues></_>
        <_>
          <internalNodes>
            0 -1 338 1.3215086422860622e-02</internalNodes>
          <leafValues>
            2.9907982796430588e-02 -6.6650724411010742e-01</leafValues></_>
        <_>
          <internalNodes>
            0 -1 63 5.1053442060947418e-02</internalNodes>
          <leafValues>
            2.1167077124118805e-02 -7.0744836330413818e-01</leafValues></_>
        <_>
          <internalNodes>
            0 -1 882 -3.6660828627645969e-03</internalNodes>
          <leafValues>
            4.2426857352256775e-01 -4.4522922486066818e-02</leafValues></_>
        <_>
          <internalNodes>
            0 -1 844 5.1788333803415298e-04</internalNodes>
          <leafValues>
            6.9883480668067932e-02 -2.8214022517204285e-01</leafValues></_>
        <_>
          <internalNodes>
            0 -1 620 -1.1312358081340790e-02</internalNodes>
          <leafValues>
            4.9534359574317932e-01 -3.3637512475252151e-02</leafValues></_>
        <_>
          <internalNodes>
            0 -1 985 1.2527701910585165e-03</internalNodes>
          <leafValues>
            4.5084282755851746e-02 -3.5514414310455322e-01</leafValues></_>
        <_>
          <internalNodes>
            0 -1 31 1.9246889860369265e-04</internalNodes>
          <leafValues>
            -1.2351761758327484e-01 1.3236504793167114e-01</leafValues></_>
        <_>
          <internalNodes>
            0 -1 336 1.7800301313400269e-02</internalNodes>
          <leafValues>
            3.4568831324577332e-02 -5.4092675447463989e-01</leafValues></_>
        <_>
          <internalNodes>
            0 -1 470 1.7806768417358398e-02</internalNodes>
          <leafValues>
            5.1133852452039719e-02 -2.8376916050910950e-01</leafValues></_>
        <_>
          <internalNodes>
            0 -1 823 -1.9209005404263735e-03</internalNodes>
          <leafValues>
            1.4642071723937988e-01 -1.2271805107593536e-01</leafValues></_>
        <_>
          <internalNodes>
            0 -1 818 3.3443514257669449e-03</internalNodes>
          <leafValues>
            -9.4927296042442322e-02 2.0473939180374146e-01</leafValues></_>
        <_>
          <internalNodes>
            0 -1 989 -2.1026376634836197e-03</internalNodes>
          <leafValues>
            -2.7947789430618286e-01 6.1737444251775742e-02</leafValues></_>
        <_>
          <internalNodes>
            0 -1 922 -1.3527125120162964e-03</internalNodes>
          <leafValues>
            2.0554125308990479e-01 -9.5500826835632324e-02</leafValues></_>
        <_>
          <internalNodes>
            0 -1 981 -9.3248044140636921e-04</internalNodes>
          <leafValues>
            -2.0382559299468994e-01 9.1870993375778198e-02</leafValues></_>
        <_>
          <internalNodes>
            0 -1 665 -3.3054631203413010e-03</internalNodes>
          <leafValues>
            -2.6108798384666443e-01 6.5211407840251923e-02</leafValues></_>
        <_>
          <internalNodes>
            0 -1 701 5.0560142844915390e-03</internalNodes>
          <leafValues>
            4.7684557735919952e-02 -3.1462982296943665e-01</leafValues></_>
        <_>
          <internalNodes>
            0 -1 693 -3.8791648112237453e-03</internalNodes>
          <leafValues>
            2.0038375258445740e-01 -8.5961446166038513e-02</leafValues></_>
        <_>
          <internalNodes>
            0 -1 703 -2.3611298820469528e-04</internalNodes>
          <leafValues>
            1.8678055703639984e-01 -8.7935291230678558e-02</leafValues></_>
        <_>
          <internalNodes>
            0 -1 864 -1.9238727167248726e-02</internalNodes>
          <leafValues>
            -3.3860057592391968e-01 4.8786234110593796e-02</leafValues></_>
        <_>
          <internalNodes>
            0 -1 689 -3.9721850305795670e-02</internalNodes>
          <leafValues>
            -3.4675860404968262e-01 4.3203238397836685e-02</leafValues></_>
        <_>
          <internalNodes>
            0 -1 833 -6.7542544566094875e-03</internalNodes>
          <leafValues>
            5.0180023908615112e-01 -3.3318351954221725e-02</leafValues></_>
        <_>
          <internalNodes>
            0 -1 432 -5.8155599981546402e-03</internalNodes>
          <leafValues>
            6.2746697664260864e-01 -2.3760667070746422e-02</leafValues></_>
        <_>
          <internalNodes>
            0 -1 271 3.2885887194424868e-03</internalNodes>
          <leafValues>
            -1.3271524012088776e-01 1.2193074822425842e-01</leafValues></_>
        <_>
          <internalNodes>
            0 -1 209 -8.4592029452323914e-03</internalNodes>
          <leafValues>
            1.7023825645446777e-01 -1.0526740550994873e-01</leafValues></_>
        <_>
          <internalNodes>
            0 -1 584 -1.1913863942027092e-02</internalNodes>
          <leafValues>
            1.4668703079223633e-01 -1.4038127660751343e-01</leafValues></_>
        <_>
          <internalNodes>
            0 -1 911 -9.1080350102856755e-05</internalNodes>
          <leafValues>
            -1.9993749260902405e-01 8.5319459438323975e-02</leafValues></_>
        <_>
          <internalNodes>
            0 -1 856 4.0119895711541176e-03</internalNodes>
          <leafValues>
            -3.2695736736059189e-02 4.7860214114189148e-01</leafValues></_>
        <_>
          <internalNodes>
            0 -1 771 -6.7284139804542065e-03</internalNodes>
          <leafValues>
            -4.6156647801399231e-01 3.8735639303922653e-02</leafValues></_>
        <_>
          <internalNodes>
            0 -1 231 7.9904543235898018e-04</internalNodes>
          <leafValues>
            8.3387292921543121e-02 -1.9613489508628845e-01</leafValues></_>
        <_>
          <internalNodes>
            0 -1 708 -1.9553901627659798e-02</internalNodes>
          <leafValues>
            -3.6302411556243896e-01 4.1446659713983536e-02</leafValues></_>
        <_>
          <internalNodes>
            0 -1 684 1.2601980008184910e-02</internalNodes>
          <leafValues>
            -2.5617176666855812e-02 7.2819060087203979e-01</leafValues></_>
        <_>
          <internalNodes>
            0 -1 128 -2.0255367271602154e-03</internalNodes>
          <leafValues>
            2.3339626193046570e-01 -6.3390977680683136e-02</leafValues></_>
        <_>
          <internalNodes>
            0 -1 227 3.9088964695110917e-04</internalNodes>
          <leafValues>
            -1.0256198793649673e-01 1.5721623599529266e-01</leafValues></_>
        <_>
          <internalNodes>
            0 -1 98 -1.9929442554712296e-02</internalNodes>
          <leafValues>
            -4.2762428522109985e-01 3.2371081411838531e-02</leafValues></_>
        <_>
          <internalNodes>
            0 -1 119 -4.7386251389980316e-04</internalNodes>
          <leafValues>
            -1.3328622281551361e-01 1.2249242514371872e-01</leafValues></_>
        <_>
          <internalNodes>
            0 -1 469 -5.5148035287857056e-02</internalNodes>
          <leafValues>
            1.5122953057289124e-01 -1.1012618243694305e-01</leafValues></_>
        <_>
          <internalNodes>
            0 -1 541 -5.1578129641711712e-03</internalNodes>
          <leafValues>
            4.4704610109329224e-01 -3.9584841579198837e-02</leafValues></_>
        <_>
          <internalNodes>
            0 -1 991 -6.3271475955843925e-03</internalNodes>
          <leafValues>
            -3.9557516574859619e-01 4.1551079601049423e-02</leafValues></_>
        <_>
          <internalNodes>
            0 -1 522 -3.7627620622515678e-03</internalNodes>
          <leafValues>
            1.8059471249580383e-01 -9.2202529311180115e-02</leafValues></_></weakClassifiers></_>
    <!-- stage 7 -->
    <_>
      <maxWeakCount>86</maxWeakCount>
      <stageThreshold>-1.0737907886505127e+00</stageThreshold>
      <weakClassifiers>
        <_>
          <internalNodes>
            0 -1 310 3.5264325141906738e-01</internalNodes>
          <leafValues>
            -2.2736991941928864e-01 2.9504951834678650e-01</leafValues></_>
        <_>
          <internalNodes>
            0 -1 294 -2.3124631843529642e-04</internalNodes>
          <leafValues>
            -3.3335188031196594e-01 9.0281911194324493e-02</leafValues></_>
        <_>
          <internalNodes>
            0 -1 295 9.7919977270066738e-04</internalNodes>
          <leafValues>
            6.8123474717140198e-02 -4.0596035122871399e-01</leafValues></_>
        <_>
          <internalNodes>
            0 -1 21 1.0468726046383381e-02</internalNodes>
          <leafValues>
            8.3770610392093658e-02 -3.2048022747039795e-01</leafValues></_>
        <_>
          <internalNodes>
            0 -1 21 -3.5611633211374283e-03</internalNodes>
          <leafValues>
            -2.5452142953872681e-01 1.6544535756111145e-01</leafValues></_>
        <_>
          <internalNodes>
            0 -1 158 -4.3899932643398643e-04</internalNodes>
          <leafValues>
            -2.3655344545841217e-01 8.4893912076950073e-02</leafValues></_>
        <_>
          <internalNodes>
            0 -1 735 -1.6723170119803399e-05</internalNodes>
          <leafValues>
            1.2551809847354889e-01 -1.7030943930149078e-01</leafValues></_>
        <_>
          <internalNodes>
            0 -1 741 9.2410832643508911e-02</internalNodes>
          <leafValues>
            -7.4111044406890869e-02 3.1902319192886353e-01</leafValues></_>
        <_>
          <internalNodes>
            0 -1 975 2.3780668154358864e-02</internalNodes>
          <leafValues>
            5.1611930131912231e-02 -3.8958320021629333e-01</leafValues></_>
        <_>
          <internalNodes>
            0 -1 486 4.2135789990425110e-03</internalNodes>
          <leafValues>
            -5.3071964532136917e-02 3.5405200719833374e-01</leafValues></_>
        <_>
          <internalNodes>
            0 -1 702 -6.3387658447027206e-03</internalNodes>
          <leafValues>
            -3.4597125649452209e-01 7.5494319200515747e-02</leafValues></_>
        <_>
          <internalNodes>
            0 -1 658 -1.1233417317271233e-02</internalNodes>
          <leafValues>
            3.4463346004486084e-01 -7.6324328780174255e-02</leafValues></_>
        <_>
          <internalNodes>
            0 -1 349 5.1418535411357880e-02</internalNodes>
          <leafValues>
            5.2708107978105545e-02 -7.9306632280349731e-01</leafValues></_>
        <_>
          <internalNodes>
            0 -1 458 8.1863682717084885e-03</internalNodes>
          <leafValues>
            -1.5927758812904358e-01 1.1884296685457230e-01</leafValues></_>
        <_>
          <internalNodes>
            0 -1 967 4.9225213006138802e-03</internalNodes>
          <leafValues>
            5.9967681765556335e-02 -5.0598460435867310e-01</leafValues></_>
        <_>
          <internalNodes>
            0 -1 799 -6.7606274969875813e-03</internalNodes>
          <leafValues>
            -4.2179793119430542e-01 3.1287062913179398e-02</leafValues></_>
        <_>
          <internalNodes>
            0 -1 761 -3.7567401304841042e-03</internalNodes>
          <leafValues>
            3.5308325290679932e-01 -5.0869565457105637e-02</leafValues></_>
        <_>
          <internalNodes>
            0 -1 419 -1.4776146970689297e-02</internalNodes>
          <leafValues>
            7.5378161668777466e-01 -1.7284704372286797e-02</leafValues></_>
        <_>
          <internalNodes>
            0 -1 759 -3.4485754440538585e-05</internalNodes>
          <leafValues>
            1.2136928737163544e-01 -1.3289862871170044e-01</leafValues></_>
        <_>
          <internalNodes>
            0 -1 688 4.8401537351310253e-03</internalNodes>
          <leafValues>
            -3.1862925738096237e-02 5.0747859477996826e-01</leafValues></_>
        <_>
          <internalNodes>
            0 -1 449 -9.1423629783093929e-04</internalNodes>
          <leafValues>
            -2.8113257884979248e-01 5.8003351092338562e-02</leafValues></_>
        <_>
          <internalNodes>
            0 -1 381 5.5176904425024986e-03</internalNodes>
          <leafValues>
            -2.4720260873436928e-02 6.3824850320816040e-01</leafValues></_>
        <_>
          <internalNodes>
            0 -1 906 5.3565323469229043e-05</internalNodes>
          <leafValues>
            8.4878243505954742e-02 -1.7647150158882141e-01</leafValues></_>
        <_>
          <internalNodes>
            0 -1 406 5.6717726401984692e-03</internalNodes>
          <leafValues>
            -3.1478118151426315e-02 5.3518766164779663e-01</leafValues></_>
        <_>
          <internalNodes>
            0 -1 155 2.1249379962682724e-02</internalNodes>
          <leafValues>
            -3.1410727649927139e-02 4.5120209455490112e-01</leafValues></_>
        <_>
          <internalNodes>
            0 -1 158 2.0124735310673714e-03</internalNodes>
          <leafValues>
            6.1816085129976273e-02 -2.5456273555755615e-01</leafValues></_>
        <_>
          <internalNodes>
            0 -1 434 -1.8475584220141172e-03</internalNodes>
          <leafValues>
            1.7292757332324982e-01 -9.1669090092182159e-02</leafValues></_>
        <_>
          <internalNodes>
            0 -1 962 5.8472582168178633e-05</internalNodes>
          <leafValues>
            8.3978906273841858e-02 -1.8831996619701385e-01</leafValues></_>
        <_>
          <internalNodes>
            0 -1 623 8.3618774078786373e-04</internalNodes>
          <leafValues>
            -1.1015424132347107e-01 1.3925157487392426e-01</leafValues></_>
        <_>
          <internalNodes>
            0 -1 865 -7.3364120908081532e-05</internalNodes>
          <leafValues>
            1.4234749972820282e-01 -1.0055270045995712e-01</leafValues></_>
        <_>
          <internalNodes>
            0 -1 653 -6.1500091105699539e-03</internalNodes>
          <leafValues>
            2.9036325216293335e-01 -5.3469993174076080e-02</leafValues></_>
        <_>
          <internalNodes>
            0 -1 81 -8.4548292215913534e-04</internalNodes>
          <leafValues>
            -2.1887993812561035e-01 6.9787368178367615e-02</leafValues></_>
        <_>
          <internalNodes>
            0 -1 835 -4.0321573615074158e-03</internalNodes>
          <leafValues>
            4.9367117881774902e-01 -3.0862670391798019e-02</leafValues></_>
        <_>
          <internalNodes>
            0 -1 457 -2.5226823985576630e-02</internalNodes>
          <leafValues>
            1.7787474393844604e-01 -8.0987408757209778e-02</leafValues></_>
        <_>
          <internalNodes>
            0 -1 944 3.4102533390978351e-05</internalNodes>
          <leafValues>
            9.0706296265125275e-02 -1.5931570529937744e-01</leafValues></_>
        <_>
          <internalNodes>
            0 -1 309 1.6304713790304959e-04</internalNodes>
          <leafValues>
            -1.2435908615589142e-01 1.1108463257551193e-01</leafValues></_>
        <_>
          <internalNodes>
            0 -1 244 -8.7066343985497952e-04</internalNodes>
          <leafValues>
            -2.6801836490631104e-01 5.4906375706195831e-02</leafValues></_>
        <_>
          <internalNodes>
            0 -1 612 -6.9641973823308945e-03</internalNodes>
          <leafValues>
            6.2483143806457520e-01 -2.4686660617589951e-02</leafValues></_>
        <_>
          <internalNodes>
            0 -1 79 -5.4921098053455353e-03</internalNodes>
          <leafValues>
            7.6860785484313965e-01 -1.6719063743948936e-02</leafValues></_>
        <_>
          <internalNodes>
            0 -1 640 -2.4584657512605190e-03</internalNodes>
          <leafValues>
            1.6430684924125671e-01 -8.3491869270801544e-02</leafValues></_>
        <_>
          <internalNodes>
            0 -1 686 3.1701386906206608e-03</internalNodes>
          <leafValues>
            -4.4635605067014694e-02 3.2004508376121521e-01</leafValues></_>
        <_>
          <internalNodes>
            0 -1 960 4.9805279559222981e-05</internalNodes>
          <leafValues>
            9.4008482992649078e-02 -1.6294506192207336e-01</leafValues></_>
        <_>
          <internalNodes>
            0 -1 247 -1.0160121135413647e-02</internalNodes>
          <leafValues>
            6.3614696264266968e-01 -2.7351908385753632e-02</leafValues></_>
        <_>
          <internalNodes>
            0 -1 559 3.2244589179754257e-02</internalNodes>
          <leafValues>
            4.5735746622085571e-02 -3.3600655198097229e-01</leafValues></_>
        <_>
          <internalNodes>
            0 -1 476 -1.5855028759688139e-03</internalNodes>
          <leafValues>
            1.4616011083126068e-01 -1.0143637657165527e-01</leafValues></_>
        <_>
          <internalNodes>
            0 -1 130 -4.8801615834236145e-02</internalNodes>
          <leafValues>
            7.0335960388183594e-01 -1.6986718401312828e-02</leafValues></_>
        <_>
          <internalNodes>
            0 -1 547 1.0930102318525314e-02</internalNodes>
          <leafValues>
            4.3288599699735641e-02 -3.5085031390190125e-01</leafValues></_>
        <_>
          <internalNodes>
            0 -1 568 -8.0598331987857819e-03</internalNodes>
          <leafValues>
            4.3781638145446777e-01 -3.5357028245925903e-02</leafValues></_>
        <_>
          <internalNodes>
            0 -1 739 -1.2595746666193008e-02</internalNodes>
          <leafValues>
            -4.4380056858062744e-01 3.5777617245912552e-02</leafValues></_>
        <_>
          <internalNodes>
            0 -1 197 4.7806859016418457e-01</internalNodes>
          <leafValues>
            -3.9686981588602066e-02 4.4437080621719360e-01</leafValues></_>
        <_>
          <internalNodes>
            0 -1 628 5.1245377399027348e-03</internalNodes>
          <leafValues>
            -4.0352586656808853e-02 3.7800642848014832e-01</leafValues></_>
        <_>
          <internalNodes>
            0 -1 498 -1.0797705501317978e-02</internalNodes>
          <leafValues>
            -4.2980015277862549e-01 3.8767181336879730e-02</leafValues></_>
        <_>
          <internalNodes>
            0 -1 629 -6.1389757320284843e-03</internalNodes>
          <leafValues>
            3.2834306359291077e-01 -4.6325083822011948e-02</leafValues></_>
        <_>
          <internalNodes>
            0 -1 83 3.5510552115738392e-03</internalNodes>
          <leafValues>
            4.7074589878320694e-02 -3.2155162096023560e-01</leafValues></_>
        <_>
          <internalNodes>
            0 -1 530 1.9440211355686188e-02</internalNodes>
          <leafValues>
            2.4245603010058403e-02 -5.1616263389587402e-01</leafValues></_>
        <_>
          <internalNodes>
            0 -1 192 8.7462103692814708e-05</internalNodes>
          <leafValues>
            -1.1046729236841202e-01 1.2868165969848633e-01</leafValues></_>
        <_>
          <internalNodes>
            0 -1 370 -4.9023027531802654e-03</internalNodes>
          <leafValues>
            4.8163759708404541e-01 -2.8003025799989700e-02</leafValues></_>
        <_>
          <internalNodes>
            0 -1 963 -2.4463099543936551e-04</internalNodes>
          <leafValues>
            -2.0029310882091522e-01 7.4781239032745361e-02</leafValues></_>
        <_>
          <internalNodes>
            0 -1 427 -4.5954799279570580e-03</internalNodes>
          <leafValues>
            4.6018120646476746e-01 -3.6250583827495575e-02</leafValues></_>
        <_>
          <internalNodes>
            0 -1 717 -2.2594130132347345e-04</internalNodes>
          <leafValues>
            1.5871784090995789e-01 -8.6138851940631866e-02</leafValues></_>
        <_>
          <internalNodes>
            0 -1 733 -2.9107793234288692e-03</internalNodes>
          <leafValues>
            -2.6048779487609863e-01 5.2205584943294525e-02</leafValues></_>
        <_>
          <internalNodes>
            0 -1 918 -1.3705641322303563e-05</internalNodes>
          <leafValues>
            1.1581750214099884e-01 -1.3452854752540588e-01</leafValues></_>
        <_>
          <internalNodes>
            0 -1 885 4.4626705348491669e-03</internalNodes>
          <leafValues>
            -5.9853170067071915e-02 2.6777756214141846e-01</leafValues></_>
        <_>
          <internalNodes>
            0 -1 177 -3.0238952022045851e-03</internalNodes>
          <leafValues>
            -2.4103733897209167e-01 6.4817011356353760e-02</leafValues></_>
        <_>
          <internalNodes>
            0 -1 93 2.7909662458114326e-04</internalNodes>
          <leafValues>
            -8.8277578353881836e-02 1.5815216302871704e-01</leafValues></_>
        <_>
          <internalNodes>
            0 -1 876 3.7897506263107061e-04</internalNodes>
          <leafValues>
            7.4447445571422577e-02 -2.2270283102989197e-01</leafValues></_>
        <_>
          <internalNodes>
            0 -1 854 -6.8349614739418030e-03</internalNodes>
          <leafValues>
            7.9131209850311279e-01 -1.9626049324870110e-02</leafValues></_>
        <_>
          <internalNodes>
            0 -1 378 4.1327048093080521e-03</internalNodes>
          <leafValues>
            -7.8863158822059631e-02 1.6962276399135590e-01</leafValues></_>
        <_>
          <internalNodes>
            0 -1 65 2.6229167357087135e-02</internalNodes>
          <leafValues>
            3.2064188271760941e-02 -4.0203845500946045e-01</leafValues></_>
        <_>
          <internalNodes>
            0 -1 613 4.1747361421585083e-02</internalNodes>
          <leafValues>
            -2.3600077256560326e-02 6.2054479122161865e-01</leafValues></_>
        <_>
          <internalNodes>
            0 -1 932 1.0738156561274081e-04</internalNodes>
          <leafValues>
            7.4431777000427246e-02 -1.8486014008522034e-01</leafValues></_>
        <_>
          <internalNodes>
            0 -1 2 -1.8941538291983306e-04</internalNodes>
          <leafValues>
            1.9164632260799408e-01 -7.4298724532127380e-02</leafValues></_>
        <_>
          <internalNodes>
            0 -1 365 -1.4293010532855988e-01</internalNodes>
          <leafValues>
            4.1191288828849792e-01 -3.1643215566873550e-02</leafValues></_>
        <_>
          <internalNodes>
            0 -1 579 -2.2922210395336151e-02</internalNodes>
          <leafValues>
            -2.9024019837379456e-01 5.2419312298297882e-02</leafValues></_>
        <_>
          <internalNodes>
            0 -1 276 -1.5667493641376495e-01</internalNodes>
          <leafValues>
            6.5616518259048462e-01 -2.2904470562934875e-02</leafValues></_>
        <_>
          <internalNodes>
            0 -1 571 -2.0744860172271729e-02</internalNodes>
          <leafValues>
            -2.4458140134811401e-01 6.0373082756996155e-02</leafValues></_>
        <_>
          <internalNodes>
            0 -1 632 -1.4251418178901076e-05</internalNodes>
          <leafValues>
            1.2003070116043091e-01 -1.1761311441659927e-01</leafValues></_>
        <_>
          <internalNodes>
