<?xml version="1.0"?>
<opencv_storage>
<cascade>
  <stageType>BOOST</stageType>
  <featureType>HAAR</featureType>
  <height>20</height>
  <width>20</width>
  <stageParams>
    <boostType>GAB</boostType>
    <minHitRate>9.9500000476837158e-01</minHitRate>
    <maxFalseAlarm>5.0000000000000000e-01</maxFalseAlarm>
    <weightTrimRate>9.4999999999999996e-01</weightTrimRate>
    <maxDepth>1</maxDepth>
    <maxWeakCount>100</maxWeakCount></stageParams>
  <featureParams>
    <maxCatCount>0</maxCatCount>
    <featSize>1</featSize>
    <mode>BASIC</mode></featureParams>
  <stageNum>12</stageNum>
  <stages>
    <!-- stage 0 -->
    <_>
      <maxWeakCount>49</maxWeakCount>
      <stageThreshold>-1.1606938838958740e+00</stageThreshold>
      <weakClassifiers>
        <_>
          <internalNodes>
            0 -1 209 1.1976074427366257e-02</internalNodes>
          <leafValues>
            -1.4673562347888947e-01 4.9090909957885742e-01</leafValues></_>
        <_>
          <internalNodes>
            0 -1 370 -4.8917364329099655e-03</internalNodes>
          <leafValues>
            4.3999525904655457e-01 -1.0479795187711716e-01</leafValues></_>
        <_>
          <internalNodes>
            0 -1 620 4.4852606952190399e-03</internalNodes>
          <leafValues>
            -6.0938425362110138e-02 5.5683082342147827e-01</leafValues></_>
        <_>
          <internalNodes>
            0 -1 607 -5.5785458243917674e-05</internalNodes>
          <leafValues>
            1.6145512461662292e-01 -2.1961976587772369e-01</leafValues></_>
        <_>
          <internalNodes>
            0 -1 364 2.3747581988573074e-02</internalNodes>
          <leafValues>
            -9.3782946467399597e-02 3.8865399360656738e-01</leafValues></_>
        <_>
          <internalNodes>
            0 -1 310 5.7345675304532051e-03</internalNodes>
          <leafValues>
            -6.0463573783636093e-02 6.4780938625335693e-01</leafValues></_>
        <_>
          <internalNodes>
            0 -1 508 -5.2336147055029869e-03</internalNodes>
          <leafValues>
            5.8958470821380615e-01 -5.5447947233915329e-02</leafValues></_>
        <_>
          <internalNodes>
            0 -1 174 3.3495058305561543e-03</internalNodes>
          <leafValues>
            -8.2081131637096405e-02 3.9369949698448181e-01</leafValues></_>
        <_>
          <internalNodes>
            0 -1 175 -9.6297841519117355e-03</internalNodes>
          <leafValues>
            4.6407529711723328e-01 -5.2927218377590179e-02</leafValues></_>
        <_>
          <internalNodes>
            0 -1 11 -2.0329174585640430e-03</internalNodes>
          <leafValues>
            -2.2532728314399719e-01 1.4130191504955292e-01</leafValues></_>
        <_>
          <internalNodes>
            0 -1 411 4.3918108567595482e-03</internalNodes>
          <leafValues>
            -3.7958454340696335e-02 5.1097697019577026e-01</leafValues></_>
        <_>
          <internalNodes>
            0 -1 600 -5.1458920352160931e-03</internalNodes>
          <leafValues>
            5.5723327398300171e-01 -5.2969899028539658e-02</leafValues></_>
        <_>
          <internalNodes>
            0 -1 679 4.2573716491460800e-03</internalNodes>
          <leafValues>
            -6.8714998662471771e-02 4.3287611007690430e-01</leafValues></_>
        <_>
          <internalNodes>
            0 -1 172 1.2825995683670044e-01</internalNodes>
          <leafValues>
            6.5201036632061005e-02 -4.4495481252670288e-01</leafValues></_>
        <_>
          <internalNodes>
            0 -1 319 -7.4239238165318966e-03</internalNodes>
          <leafValues>
            -3.9741247892379761e-01 9.4280503690242767e-02</leafValues></_>
        <_>
          <internalNodes>
            0 -1 504 -4.0427371859550476e-03</internalNodes>
          <leafValues>
            3.9900779724121094e-01 -8.3441250026226044e-02</leafValues></_>
        <_>
          <internalNodes>
            0 -1 443 -7.1174345910549164e-02</internalNodes>
          <leafValues>
            8.2384413480758667e-01 -3.0882554128766060e-02</leafValues></_>
        <_>
          <internalNodes>
            0 -1 737 4.3890299275517464e-04</internalNodes>
          <leafValues>
            1.0802081227302551e-01 -2.7783867716789246e-01</leafValues></_>
        <_>
          <internalNodes>
            0 -1 244 3.3451537601649761e-03</internalNodes>
          <leafValues>
            -9.0220347046852112e-02 3.1772568821907043e-01</leafValues></_>
        <_>
          <internalNodes>
            0 -1 192 -2.1251481957733631e-03</internalNodes>
          <leafValues>
            -2.9983827471733093e-01 9.5445238053798676e-02</leafValues></_>
        <_>
          <internalNodes>
            0 -1 541 -9.6732061356306076e-03</internalNodes>
          <leafValues>
            5.3985285758972168e-01 -5.7299926877021790e-02</leafValues></_>
        <_>
          <internalNodes>
            0 -1 152 5.6121975183486938e-02</internalNodes>
          <leafValues>
            7.7472068369388580e-02 -3.9318630099296570e-01</leafValues></_>
        <_>
          <internalNodes>
            0 -1 381 -1.0474123060703278e-02</internalNodes>
          <leafValues>
            3.7815406918525696e-01 -7.1340754628181458e-02</leafValues></_>
        <_>
          <internalNodes>
            0 -1 352 -5.2912123501300812e-03</internalNodes>
          <leafValues>
            4.9117562174797058e-01 -5.0993312150239944e-02</leafValues></_>
        <_>
          <internalNodes>
            0 -1 283 -5.8109844103455544e-03</internalNodes>
          <leafValues>
            -2.9345870018005371e-01 9.0434603393077850e-02</leafValues></_>
        <_>
          <internalNodes>
            0 -1 57 -4.0284823626279831e-03</internalNodes>
          <leafValues>
            5.9931087493896484e-01 -4.0598809719085693e-02</leafValues></_>
        <_>
          <internalNodes>
            0 -1 709 2.9500978998839855e-03</internalNodes>
          <leafValues>
            -6.9433301687240601e-02 3.5388249158859253e-01</leafValues></_>
        <_>
          <internalNodes>
            0 -1 737 -1.3271451462060213e-03</internalNodes>
          <leafValues>
            -3.7521520256996155e-01 7.2139315307140350e-02</leafValues></_>
        <_>
          <internalNodes>
            0 -1 704 -3.4727498888969421e-02</internalNodes>
          <leafValues>
            -5.8530229330062866e-01 5.0460260361433029e-02</leafValues></_>
        <_>
          <internalNodes>
            0 -1 150 2.0076792687177658e-02</internalNodes>
          <leafValues>
            5.1283311098814011e-02 -4.7350117564201355e-01</leafValues></_>
        <_>
          <internalNodes>
            0 -1 397 3.7375126034021378e-02</internalNodes>
          <leafValues>
            7.6681829988956451e-02 -3.7044972181320190e-01</leafValues></_>
        <_>
          <internalNodes>
            0 -1 644 -9.9896043539047241e-02</internalNodes>
          <leafValues>
            -5.3907710313796997e-01 4.9229077994823456e-02</leafValues></_>
        <_>
          <internalNodes>
            0 -1 286 4.9253545701503754e-02</internalNodes>
          <leafValues>
            5.0089802592992783e-02 -5.1666200160980225e-01</leafValues></_>
        <_>
          <internalNodes>
            0 -1 532 -4.7192247584462166e-03</internalNodes>
          <leafValues>
            6.5622162818908691e-01 -4.5860543847084045e-02</leafValues></_>
        <_>
          <internalNodes>
            0 -1 425 9.8740193061530590e-04</internalNodes>
          <leafValues>
            -9.2426501214504242e-02 2.7513292431831360e-01</leafValues></_>
        <_>
          <internalNodes>
            0 -1 425 -3.0960829462856054e-03</internalNodes>
          <leafValues>
            4.3432942032814026e-01 -5.3513895720243454e-02</leafValues></_>
        <_>
          <internalNodes>
            0 -1 13 1.2082423269748688e-01</internalNodes>
          <leafValues>
            7.0906996726989746e-02 -3.5674539208412170e-01</leafValues></_>
        <_>
          <internalNodes>
            0 -1 405 5.6287730112671852e-03</internalNodes>
          <leafValues>
            -4.8395391553640366e-02 5.1720023155212402e-01</leafValues></_>
        <_>
          <internalNodes>
            0 -1 490 -1.0853216052055359e-02</internalNodes>
          <leafValues>
            -2.1031478047370911e-01 1.1444529145956039e-01</leafValues></_>
        <_>
          <internalNodes>
            0 -1 629 -1.0519447736442089e-02</internalNodes>
          <leafValues>
            7.3688894510269165e-01 -3.3331193029880524e-02</leafValues></_>
        <_>
          <internalNodes>
            0 -1 468 7.1902764029800892e-03</internalNodes>
          <leafValues>
            8.6520224809646606e-02 -3.0804473161697388e-01</leafValues></_>
        <_>
          <internalNodes>
            0 -1 237 1.0468287393450737e-02</internalNodes>
          <leafValues>
            7.5859040021896362e-02 -3.1351798772811890e-01</leafValues></_>
        <_>
          <internalNodes>
            0 -1 598 -2.9349282849580050e-03</internalNodes>
          <leafValues>
            4.2249548435211182e-01 -5.7588532567024231e-02</leafValues></_>
        <_>
          <internalNodes>
            0 -1 598 8.2653970457613468e-04</internalNodes>
          <leafValues>
            -8.8616371154785156e-02 2.5447815656661987e-01</leafValues></_>
        <_>
          <internalNodes>
            0 -1 460 1.1492080055177212e-02</internalNodes>
          <leafValues>
            -1.2368397414684296e-01 1.8652644753456116e-01</leafValues></_>
        <_>
          <internalNodes>
            0 -1 362 -3.1509592663496733e-03</internalNodes>
          <leafValues>
            5.1382058858871460e-01 -4.8539891839027405e-02</leafValues></_>
        <_>
          <internalNodes>
            0 -1 342 -4.1706110350787640e-03</internalNodes>
          <leafValues>
            4.3478021025657654e-01 -4.8174541443586349e-02</leafValues></_>
        <_>
          <internalNodes>
            0 -1 81 -3.2863218802958727e-03</internalNodes>
          <leafValues>
            -3.5621926188468933e-01 6.4742319285869598e-02</leafValues></_>
        <_>
          <internalNodes>
            0 -1 202 1.6025109216570854e-02</internalNodes>
          <leafValues>
            -5.4980844259262085e-02 4.3121683597564697e-01</leafValues></_></weakClassifiers></_>
    <!-- stage 1 -->
    <_>
      <maxWeakCount>63</maxWeakCount>
      <stageThreshold>-1.0852334499359131e+00</stageThreshold>
      <weakClassifiers>
        <_>
          <internalNodes>
            0 -1 511 4.2839590460062027e-03</internalNodes>
          <leafValues>
            5.7453997433185577e-02 -3.9308854937553406e-01</leafValues></_>
        <_>
          <internalNodes>
            0 -1 547 -5.4826955311000347e-03</internalNodes>
          <leafValues>
            -3.2235968112945557e-01 9.5495104789733887e-02</leafValues></_>
        <_>
          <internalNodes>
            0 -1 329 2.5708954781293869e-02</internalNodes>
          <leafValues>
            -4.9023307859897614e-02 5.2531278133392334e-01</leafValues></_>
        <_>
          <internalNodes>
            0 -1 159 -1.2493268586695194e-02</internalNodes>
          <leafValues>
            3.0684930086135864e-01 -1.2278015911579132e-01</leafValues></_>
        <_>
          <internalNodes>
            0 -1 234 -2.0538048818707466e-02</internalNodes>
          <leafValues>
            5.2761495113372803e-01 -4.8097040504217148e-02</leafValues></_>
        <_>
          <internalNodes>
            0 -1 138 -1.9096784293651581e-02</internalNodes>
          <leafValues>
            5.8422952890396118e-01 -2.0239330828189850e-02</leafValues></_>
        <_>
          <internalNodes>
            0 -1 740 -9.1201707255095243e-04</internalNodes>
          <leafValues>
            -1.9395515322685242e-01 1.2869961559772491e-01</leafValues></_>
        <_>
          <internalNodes>
            0 -1 10 -1.4420041814446449e-02</internalNodes>
          <leafValues>
            -3.2595896720886230e-01 9.8614498972892761e-02</leafValues></_>
        <_>
          <internalNodes>
            0 -1 363 -5.3427238017320633e-02</internalNodes>
          <leafValues>
            -5.7003509998321533e-01 2.6314714923501015e-02</leafValues></_>
        <_>
          <internalNodes>
            0 -1 534 -9.3896165490150452e-03</internalNodes>
          <leafValues>
            4.6287903189659119e-01 -4.8682685941457748e-02</leafValues></_>
        <_>
          <internalNodes>
            0 -1 737 1.5132810221984982e-04</internalNodes>
          <leafValues>
            1.1145156621932983e-01 -2.0411464571952820e-01</leafValues></_>
        <_>
          <internalNodes>
            0 -1 187 -3.2287750393152237e-02</internalNodes>
          <leafValues>
            6.6342854499816895e-01 -2.7949994429945946e-02</leafValues></_>
        <_>
          <internalNodes>
            0 -1 182 3.9183450862765312e-03</internalNodes>
          <leafValues>
            -7.2425007820129395e-02 3.3427485823631287e-01</leafValues></_>
        <_>
          <internalNodes>
            0 -1 494 -6.8757208064198494e-03</internalNodes>
          <leafValues>
            5.3479707241058350e-01 -3.2652325928211212e-02</leafValues></_>
        <_>
          <internalNodes>
            0 -1 289 9.7510609775781631e-03</internalNodes>
          <leafValues>
            -6.2404837459325790e-02 3.3815622329711914e-01</leafValues></_>
        <_>
          <internalNodes>
            0 -1 749 -1.2163577601313591e-02</internalNodes>
          <leafValues>
            -4.2854809761047363e-01 5.3212922066450119e-02</leafValues></_>
        <_>
          <internalNodes>
            0 -1 474 -1.4545261859893799e-02</internalNodes>
          <leafValues>
            6.6776502132415771e-01 -4.1466046124696732e-02</leafValues></_>
        <_>
          <internalNodes>
            0 -1 421 3.5738041624426842e-03</internalNodes>
          <leafValues>
            -5.6456517428159714e-02 3.4551179409027100e-01</leafValues></_>
        <_>
          <internalNodes>
            0 -1 754 2.7495438698679209e-03</internalNodes>
          <leafValues>
            9.8080225288867950e-02 -2.4964854121208191e-01</leafValues></_>
        <_>
          <internalNodes>
            0 -1 467 -3.3877706155180931e-03</internalNodes>
          <leafValues>
            -2.5877940654754639e-01 7.7734850347042084e-02</leafValues></_>
        <_>
          <internalNodes>
            0 -1 301 -4.4047078117728233e-03</internalNodes>
          <leafValues>
            5.1825731992721558e-01 -4.4555298984050751e-02</leafValues></_>
        <_>
          <internalNodes>
            0 -1 546 -2.1729054860770702e-03</internalNodes>
          <leafValues>
            -2.1542991697788239e-01 1.0079442709684372e-01</leafValues></_>
        <_>
          <internalNodes>
            0 -1 385 3.7128664553165436e-03</internalNodes>
          <leafValues>
            -5.4945308715105057e-02 3.5972023010253906e-01</leafValues></_>
        <_>
          <internalNodes>
            0 -1 67 -7.4823363684117794e-04</internalNodes>
          <leafValues>
            -2.7015709877014160e-01 8.1012360751628876e-02</leafValues></_>
        <_>
          <internalNodes>
            0 -1 19 2.5069197639822960e-02</internalNodes>
          <leafValues>
            -4.1671976447105408e-02 5.4615885019302368e-01</leafValues></_>
        <_>
          <internalNodes>
            0 -1 32 -1.8788628280162811e-02</internalNodes>
          <leafValues>
            3.8010215759277344e-01 -6.0535136610269547e-02</leafValues></_>
        <_>
          <internalNodes>
            0 -1 439 3.6434095352888107e-02</internalNodes>
          <leafValues>
            4.8419233411550522e-02 -4.5499312877655029e-01</leafValues></_>
        <_>
          <internalNodes>
            0 -1 224 1.5067721251398325e-03</internalNodes>
          <leafValues>
            -9.6609540283679962e-02 2.1309061348438263e-01</leafValues></_>
        <_>
          <internalNodes>
            0 -1 267 4.4691525399684906e-02</internalNodes>
          <leafValues>
            7.6785758137702942e-02 -2.9064223170280457e-01</leafValues></_>
        <_>
          <internalNodes>
            0 -1 105 -2.3678801953792572e-03</internalNodes>
          <leafValues>
            -2.5139340758323669e-01 8.7529852986335754e-02</leafValues></_>
        <_>
          <internalNodes>
            0 -1 99 4.5686237514019012e-02</internalNodes>
          <leafValues>
            3.6118406802415848e-02 -5.6590580940246582e-01</leafValues></_>
        <_>
          <internalNodes>
            0 -1 217 -3.1149994581937790e-02</internalNodes>
          <leafValues>
            5.1502633094787598e-01 -4.0903739631175995e-02</leafValues></_>
        <_>
          <internalNodes>
            0 -1 143 -2.4371758627239615e-04</internalNodes>
          <leafValues>
            -2.1846510469913483e-01 9.3208380043506622e-02</leafValues></_>
        <_>
          <internalNodes>
            0 -1 530 2.5797639973461628e-03</internalNodes>
          <leafValues>
            -5.8196116238832474e-02 3.3699080348014832e-01</leafValues></_>
        <_>
          <internalNodes>
            0 -1 705 -2.0658513531088829e-02</internalNodes>
          <leafValues>
            5.1102000474929810e-01 -3.6166381090879440e-02</leafValues></_>
        <_>
          <internalNodes>
            0 -1 189 -4.4905948452651501e-03</internalNodes>
          <leafValues>
            -2.1588365733623505e-01 8.9460633695125580e-02</leafValues></_>
        <_>
          <internalNodes>
            0 -1 332 -5.5859470739960670e-03</internalNodes>
          <leafValues>
            4.0787705779075623e-01 -5.0913151353597641e-02</leafValues></_>
        <_>
          <internalNodes>
            0 -1 111 3.2282859086990356e-02</internalNodes>
          <leafValues>
            6.1845012009143829e-02 -3.2457292079925537e-01</leafValues></_>
        <_>
          <internalNodes>
            0 -1 705 1.4782791957259178e-02</internalNodes>
          <leafValues>
            -5.3943026810884476e-02 3.9142054319381714e-01</leafValues></_>
        <_>
          <internalNodes>
            0 -1 652 2.3881439119577408e-02</internalNodes>
          <leafValues>
            3.1760629266500473e-02 -6.8707185983657837e-01</leafValues></_>
        <_>
          <internalNodes>
            0 -1 374 -3.1935043632984161e-02</internalNodes>
          <leafValues>
            4.2659172415733337e-01 -4.7207884490489960e-02</leafValues></_>
        <_>
          <internalNodes>
            0 -1 625 5.3101251833140850e-03</internalNodes>
          <leafValues>
            -4.1113458573818207e-02 4.1227442026138306e-01</leafValues></_>
        <_>
          <internalNodes>
            0 -1 617 3.5394463688135147e-02</internalNodes>
          <leafValues>
            3.9918366819620132e-02 -4.6415013074874878e-01</leafValues></_>
        <_>
          <internalNodes>
            0 -1 715 -3.7504352803807706e-05</internalNodes>
          <leafValues>
            1.2514904141426086e-01 -1.4461988210678101e-01</leafValues></_>
        <_>
          <internalNodes>
            0 -1 643 1.2409228365868330e-03</internalNodes>
          <leafValues>
            7.8186847269535065e-02 -2.6634401082992554e-01</leafValues></_>
        <_>
          <internalNodes>
            0 -1 660 -1.0291966609656811e-03</internalNodes>
          <leafValues>
            -2.8070598840713501e-01 7.0097416639328003e-02</leafValues></_>
        <_>
          <internalNodes>
            0 -1 306 2.2928066551685333e-02</internalNodes>
          <leafValues>
            2.2137712687253952e-02 -8.2031786441802979e-01</leafValues></_>
        <_>
          <internalNodes>
            0 -1 706 5.0706556066870689e-03</internalNodes>
          <leafValues>
            -4.7057885676622391e-02 4.4550493359565735e-01</leafValues></_>
        <_>
          <internalNodes>
            0 -1 640 -4.2619043961167336e-03</internalNodes>
          <leafValues>
            -2.5763884186744690e-01 7.9053409397602081e-02</leafValues></_>
        <_>
          <internalNodes>
            0 -1 691 7.8945141285657883e-04</internalNodes>
          <leafValues>
            7.8629471361637115e-02 -2.6753914356231689e-01</leafValues></_>
        <_>
          <internalNodes>
            0 -1 142 -2.3535806685686111e-02</internalNodes>
          <leafValues>
            -4.0613982081413269e-01 4.2465921491384506e-02</leafValues></_>
        <_>
          <internalNodes>
            0 -1 752 -8.1126112490892410e-03</internalNodes>
          <leafValues>
            -2.5619179010391235e-01 7.1729198098182678e-02</leafValues></_>
        <_>
          <internalNodes>
            0 -1 422 5.5096847936511040e-03</internalNodes>
          <leafValues>
            -3.3328711986541748e-02 5.6482917070388794e-01</leafValues></_>
        <_>
          <internalNodes>
            0 -1 664 6.1765545979142189e-03</internalNodes>
          <leafValues>
            -3.4204188734292984e-02 4.9362853169441223e-01</leafValues></_>
        <_>
          <internalNodes>
            0 -1 690 -2.7573719853535295e-04</internalNodes>
          <leafValues>
            -1.4858567714691162e-01 1.2634916603565216e-01</leafValues></_>
        <_>
          <internalNodes>
            0 -1 316 2.8376032132655382e-03</internalNodes>
          <leafValues>
            -6.1688248068094254e-02 3.0688843131065369e-01</leafValues></_>
        <_>
          <internalNodes>
            0 -1 56 3.1424071639776230e-02</internalNodes>
          <leafValues>
            5.6443672627210617e-02 -3.2035583257675171e-01</leafValues></_>
        <_>
          <internalNodes>
            0 -1 0 8.7672204244881868e-05</internalNodes>
          <leafValues>
            -1.2943033874034882e-01 1.3386951386928558e-01</leafValues></_>
        <_>
          <internalNodes>
            0 -1 476 1.5586351975798607e-02</internalNodes>
          <leafValues>
            -4.4211857020854950e-02 4.0104797482490540e-01</leafValues></_>
        <_>
          <internalNodes>
            0 -1 624 -6.3559763133525848e-02</internalNodes>
          <leafValues>
            3.6225101351737976e-01 -4.8269983381032944e-02</leafValues></_>
        <_>
          <internalNodes>
            0 -1 354 -5.0069335848093033e-03</internalNodes>
          <leafValues>
            4.2845037579536438e-01 -4.0116839110851288e-02</leafValues></_>
        <_>
          <internalNodes>
            0 -1 258 -5.9076128527522087e-03</internalNodes>
          <leafValues>
            4.0987902879714966e-01 -4.0512807667255402e-02</leafValues></_>
        <_>
          <internalNodes>
            0 -1 610 3.9723824709653854e-02</internalNodes>
          <leafValues>
            3.6863896995782852e-02 -5.3980743885040283e-01</leafValues></_></weakClassifiers></_>
    <!-- stage 2 -->
    <_>
      <maxWeakCount>82</maxWeakCount>
      <stageThreshold>-1.1368246078491211e+00</stageThreshold>
      <weakClassifiers>
        <_>
          <internalNodes>
            0 -1 6 -2.0988125354051590e-02</internalNodes>
          <leafValues>
            -3.3608248829841614e-01 4.3909888714551926e-02</leafValues></_>
        <_>
          <internalNodes>
            0 -1 71 -3.0960594303905964e-03</internalNodes>
          <leafValues>
            -2.4234196543693542e-01 1.0091802477836609e-01</leafValues></_>
        <_>
          <internalNodes>
            0 -1 229 5.4520733654499054e-02</internalNodes>
          <leafValues>
            -4.8810753971338272e-02 3.7675195932388306e-01</leafValues></_>
        <_>
          <internalNodes>
            0 -1 304 -1.8461663275957108e-02</internalNodes>
          <leafValues>
            4.5034191012382507e-01 -5.9972457587718964e-02</leafValues></_>
        <_>
          <internalNodes>
            0 -1 39 5.6105561554431915e-02</internalNodes>
          <leafValues>
            -1.1185362190008163e-01 2.7333816885948181e-01</leafValues></_>
        <_>
          <internalNodes>
            0 -1 171 9.3836590647697449e-02</internalNodes>
          <leafValues>
            7.0374466478824615e-02 -3.5582140088081360e-01</leafValues></_>
        <_>
          <internalNodes>
            0 -1 604 3.4653081092983484e-04</internalNodes>
          <leafValues>
            1.1171997338533401e-01 -2.2825315594673157e-01</leafValues></_>
        <_>
          <internalNodes>
            0 -1 588 1.0767976054921746e-03</internalNodes>
          <leafValues>
            9.7758524119853973e-02 -2.7117854356765747e-01</leafValues></_>
        <_>
          <internalNodes>
            0 -1 407 -1.4442223310470581e-01</internalNodes>
          <leafValues>
            -3.9162242412567139e-01 1.8474029377102852e-02</leafValues></_>
        <_>
          <internalNodes>
            0 -1 296 4.2067870497703552e-02</internalNodes>
          <leafValues>
            1.2252615392208099e-01 -2.7881723642349243e-01</leafValues></_>
        <_>
          <internalNodes>
            0 -1 415 6.7643299698829651e-03</internalNodes>
          <leafValues>
            -6.2950924038887024e-02 3.1515192985534668e-01</leafValues></_>
        <_>
          <internalNodes>
            0 -1 393 -1.9071429967880249e-02</internalNodes>
          <leafValues>
            5.7778233289718628e-01 -2.6683043688535690e-02</leafValues></_>
        <_>
          <internalNodes>
            0 -1 372 -1.5197465196251869e-02</internalNodes>
          <leafValues>
            6.0799366235733032e-01 -3.4269154071807861e-02</leafValues></_>
        <_>
          <internalNodes>
            0 -1 2 -1.8829836044460535e-03</internalNodes>
          <leafValues>
            -1.8746033310890198e-01 1.0594490170478821e-01</leafValues></_>
        <_>
          <internalNodes>
            0 -1 20 5.1079437136650085e-02</internalNodes>
          <leafValues>
            -4.9566645175218582e-02 5.4964900016784668e-01</leafValues></_>
        <_>
          <internalNodes>
            0 -1 103 1.6276221722364426e-03</internalNodes>
          <leafValues>
            6.5739125013351440e-02 -3.4254512190818787e-01</leafValues></_>
        <_>
          <internalNodes>
            0 -1 31 -2.2686463780701160e-03</internalNodes>
          <leafValues>
            -1.6650296747684479e-01 1.1551826447248459e-01</leafValues></_>
        <_>
          <internalNodes>
            0 -1 250 1.2486128136515617e-02</internalNodes>
          <leafValues>
            -4.8110235482454300e-02 3.6509603261947632e-01</leafValues></_>
        <_>
          <internalNodes>
            0 -1 455 -2.7769293636083603e-02</internalNodes>
          <leafValues>
            4.8540711402893066e-01 -4.0606450289487839e-02</leafValues></_>
        <_>
          <internalNodes>
            0 -1 238 -1.3682411517947912e-03</internalNodes>
          <leafValues>
            -2.1028570830821991e-01 1.0461144149303436e-01</leafValues></_>
        <_>
          <internalNodes>
            0 -1 456 2.4436680600047112e-02</internalNodes>
          <leafValues>
            -6.4785994589328766e-02 3.8918831944465637e-01</leafValues></_>
        <_>
          <internalNodes>
            0 -1 109 -8.8892888743430376e-04</internalNodes>
          <leafValues>
            -1.9189919531345367e-01 1.1129715293645859e-01</leafValues></_>
        <_>
          <internalNodes>
            0 -1 555 3.9017456583678722e-03</internalNodes>
          <leafValues>
            -5.4661810398101807e-02 3.6424756050109863e-01</leafValues></_>
        <_>
          <internalNodes>
            0 -1 358 3.7454087287187576e-02</internalNodes>
          <leafValues>
            -3.2604087144136429e-02 5.9835600852966309e-01</leafValues></_>
        <_>
          <internalNodes>
            0 -1 143 7.6693331357091665e-04</internalNodes>
          <leafValues>
            8.4697894752025604e-02 -2.5269502401351929e-01</leafValues></_>
        <_>
          <internalNodes>
            0 -1 627 -3.0149072408676147e-03</internalNodes>
          <leafValues>
            2.9165732860565186e-01 -6.4287737011909485e-02</leafValues></_>
        <_>
          <internalNodes>
            0 -1 662 -2.6247050845995545e-04</internalNodes>
          <leafValues>
            1.2117356806993484e-01 -1.5159869194030762e-01</leafValues></_>
        <_>
          <internalNodes>
            0 -1 62 -4.5541822910308838e-02</internalNodes>
          <leafValues>
            -4.4543191790580750e-01 3.4842967987060547e-02</leafValues></_>
        <_>
          <internalNodes>
            0 -1 295 -5.7247807271778584e-03</internalNodes>
          <leafValues>
            4.3417721986770630e-01 -4.0495257824659348e-02</leafValues></_>
        <_>
          <internalNodes>
            0 -1 689 2.6337266899645329e-04</internalNodes>
          <leafValues>
            9.4811886548995972e-02 -1.8353201448917389e-01</leafValues></_>
        <_>
          <internalNodes>
            0 -1 738 1.7353069779346697e-05</internalNodes>
          <leafValues>
            -1.2822449207305908e-01 1.3580013811588287e-01</leafValues></_>
        <_>
          <internalNodes>
            0 -1 163 -5.0029702484607697e-02</internalNodes>
          <leafValues>
            6.7023956775665283e-01 -3.0948331579566002e-02</leafValues></_>
        <_>
          <internalNodes>
            0 -1 215 -3.7288561463356018e-02</internalNodes>
          <leafValues>
            -3.7975609302520752e-01 5.1824953407049179e-02</leafValues></_>
        <_>
          <internalNodes>
            0 -1 213 -6.6194394603371620e-03</internalNodes>
          <leafValues>
            4.4130432605743408e-01 -3.9276674389839172e-02</leafValues></_>
        <_>
          <internalNodes>
            0 -1 143 -6.6052400507032871e-04</internalNodes>
          <leafValues>
            -2.5484237074851990e-01 7.1906626224517822e-02</leafValues></_>
        <_>
          <internalNodes>
            0 -1 298 5.0292585045099258e-02</internalNodes>
          <leafValues>
            -3.0192557722330093e-02 5.8126598596572876e-01</leafValues></_>
        <_>
          <internalNodes>
            0 -1 565 -5.7528186589479446e-03</internalNodes>
          <leafValues>
            3.9494600892066956e-01 -3.7568531930446625e-02</leafValues></_>
        <_>
          <internalNodes>
            0 -1 751 -1.6744028776884079e-02</internalNodes>
          <leafValues>
            -5.0017321109771729e-01 3.1858172267675400e-02</leafValues></_>
        <_>
          <internalNodes>
            0 -1 180 -5.5353282950818539e-03</internalNodes>
          <leafValues>
            4.3368291854858398e-01 -3.8701489567756653e-02</leafValues></_>
        <_>
          <internalNodes>
            0 -1 369 -6.4030685462057590e-03</internalNodes>
          <leafValues>
            4.4758585095405579e-01 -3.3582810312509537e-02</leafValues></_>
        <_>
          <internalNodes>
            0 -1 91 -2.4778801016509533e-03</internalNodes>
          <leafValues>
            -2.1955898404121399e-01 7.7180951833724976e-02</leafValues></_>
        <_>
          <internalNodes>
            0 -1 203 2.0281327888369560e-02</internalNodes>
          <leafValues>
            -4.2176146060228348e-02 3.7595734000205994e-01</leafValues></_>
        <_>
          <internalNodes>
            0 -1 403 -1.5483456663787365e-02</internalNodes>
          <leafValues>
            2.9369384050369263e-01 -5.3182624280452728e-02</leafValues></_>
        <_>
          <internalNodes>
            0 -1 593 -5.3824946284294128e-02</internalNodes>
          <leafValues>
            6.8783342838287354e-01 -2.4664105847477913e-02</leafValues></_>
        <_>
          <internalNodes>
            0 -1 734 2.4294413742609322e-04</internalNodes>
          <leafValues>
            1.0611873865127563e-01 -1.6878107190132141e-01</leafValues></_>
        <_>
          <internalNodes>
            0 -1 736 1.5055264520924538e-04</internalNodes>
          <leafValues>
            1.0213517397642136e-01 -1.6895703971385956e-01</leafValues></_>
        <_>
          <internalNodes>
            0 -1 493 4.0838019922375679e-03</internalNodes>
          <leafValues>
            -5.3193092346191406e-02 3.2536751031875610e-01</leafValues></_>
        <_>
          <internalNodes>
            0 -1 509 3.3708021044731140e-02</internalNodes>
          <leafValues>
            3.6936562508344650e-02 -4.8007640242576599e-01</leafValues></_>
        <_>
          <internalNodes>
            0 -1 637 -2.1903694141656160e-03</internalNodes>
          <leafValues>
            1.2780714035034180e-01 -1.3070966303348541e-01</leafValues></_>
        <_>
          <internalNodes>
            0 -1 642 2.1398128010332584e-03</internalNodes>
          <leafValues>
            5.8954149484634399e-02 -2.7133947610855103e-01</leafValues></_>
        <_>
          <internalNodes>
            0 -1 544 -9.4675235450267792e-03</internalNodes>
          <leafValues>
            4.8835313320159912e-01 -3.9227243512868881e-02</leafValues></_>
        <_>
          <internalNodes>
            0 -1 8 -5.8908011764287949e-02</internalNodes>
          <leafValues>
            -9.6606886386871338e-01 2.0000232383608818e-02</leafValues></_>
        <_>
          <internalNodes>
            0 -1 753 -9.8638050258159637e-03</internalNodes>
          <leafValues>
            -2.3030894994735718e-01 6.8202100694179535e-02</leafValues></_>
        <_>
          <internalNodes>
            0 -1 193 2.6978673413395882e-03</internalNodes>
          <leafValues>
            8.8062591850757599e-02 -1.9182755053043365e-01</leafValues></_>
        <_>
          <internalNodes>
            0 -1 707 -5.4627400822937489e-03</internalNodes>
          <leafValues>
            3.5978654026985168e-01 -5.1949430257081985e-02</leafValues></_>
        <_>
          <internalNodes>
            0 -1 338 9.0762637555599213e-03</internalNodes>
          <leafValues>
            -5.3184937685728073e-02 2.8640624880790710e-01</leafValues></_>
        <_>
          <internalNodes>
            0 -1 613 1.0994962602853775e-01</internalNodes>
          <leafValues>
            -3.0683565884828568e-02 5.2639240026473999e-01</leafValues></_>
        <_>
          <internalNodes>
            0 -1 501 -4.0263410657644272e-02</internalNodes>
          <leafValues>
            1.7887580394744873e-01 -1.0066293179988861e-01</leafValues></_>
        <_>
          <internalNodes>
            0 -1 486 -6.0997229069471359e-02</internalNodes>
          <leafValues>
            -2.8645876049995422e-01 6.1038322746753693e-02</leafValues></_>
        <_>
          <internalNodes>
            0 -1 282 -1.0256206151098013e-03</internalNodes>
          <leafValues>
            -1.5782359242439270e-01 1.0126933455467224e-01</leafValues></_>
        <_>
          <internalNodes>
            0 -1 387 6.0400781221687794e-03</internalNodes>
          <leafValues>
            -3.2547246664762497e-02 4.9280756711959839e-01</leafValues></_>
        <_>
          <internalNodes>
            0 -1 448 6.9898068904876709e-02</internalNodes>
          <leafValues>
            -1.6370657831430435e-02 8.1041306257247925e-01</leafValues></_>
        <_>
          <internalNodes>
            0 -1 736 -6.5739243291318417e-04</internalNodes>
          <leafValues>
            -1.9192509353160858e-01 8.0726176500320435e-02</leafValues></_>
        <_>
          <internalNodes>
            0 -1 252 -1.9756644964218140e-02</internalNodes>
          <leafValues>
            5.0657379627227783e-01 -3.2736577093601227e-02</leafValues></_>
        <_>
          <internalNodes>
            0 -1 733 -3.2012246549129486e-02</internalNodes>
          <leafValues>
            -4.6498468518257141e-01 3.5505764186382294e-02</leafValues></_>
        <_>
          <internalNodes>
            0 -1 16 6.6736880398821086e-05</internalNodes>
          <leafValues>
            -1.2843273580074310e-01 1.1667837202548981e-01</leafValues></_>
        <_>
          <internalNodes>
            0 -1 340 3.5351244732737541e-03</internalNodes>
          <leafValues>
            -5.9639316052198410e-02 2.6468619704246521e-01</leafValues></_>
        <_>
          <internalNodes>
            0 -1 51 -4.7026019543409348e-02</internalNodes>
          <leafValues>
            3.0067163705825806e-01 -5.3764540702104568e-02</leafValues></_>
        <_>
          <internalNodes>
            0 -1 34 9.0977147221565247e-02</internalNodes>
          <leafValues>
            -8.4618970751762390e-02 2.1280117332935333e-01</leafValues></_>
        <_>
          <internalNodes>
            0 -1 150 2.1908789873123169e-02</internalNodes>
          <leafValues>
            4.0058169513940811e-02 -3.8281750679016113e-01</leafValues></_>
        <_>
          <internalNodes>
            0 -1 290 -8.3032250404357910e-03</internalNodes>
          <leafValues>
            6.6401696205139160e-01 -3.0405391007661819e-02</leafValues></_>
        <_>
          <internalNodes>
            0 -1 195 3.2115254725795239e-05</internalNodes>
          <leafValues>
            -1.2513341009616852e-01 1.2773969769477844e-01</leafValues></_>
        <_>
          <internalNodes>
            0 -1 222 -3.6055311560630798e-02</internalNodes>
          <leafValues>
            7.8558576107025146e-01 -1.8911508843302727e-02</leafValues></_>
        <_>
          <internalNodes>
            0 -1 655 -9.6994172781705856e-03</internalNodes>
          <leafValues>
            7.4361008405685425e-01 -1.6782864928245544e-02</leafValues></_>
        <_>
          <internalNodes>
            0 -1 276 -5.8946078643202782e-03</internalNodes>
          <leafValues>
            5.5744314193725586e-01 -2.3585293442010880e-02</leafValues></_>
        <_>
          <internalNodes>
            0 -1 331 -6.8519294261932373e-02</internalNodes>
          <leafValues>
            -4.4480901956558228e-01 3.8007054477930069e-02</leafValues></_>
        <_>
          <internalNodes>
            0 -1 42 1.4662367105484009e-01</internalNodes>
          <leafValues>
            1.6826339066028595e-02 -8.2242041826248169e-01</leafValues></_>
        <_>
          <internalNodes>
            0 -1 190 6.3799247145652771e-02</internalNodes>
          <leafValues>
            1.3344676233828068e-02 -8.5356152057647705e-01</leafValues></_>
        <_>
          <internalNodes>
            0 -1 458 -4.9074031412601471e-03</internalNodes>
          <leafValues>
            2.1752429008483887e-01 -7.6470434665679932e-02</leafValues></_>
        <_>
          <internalNodes>
            0 -1 89 4.3701956747099757e-04</internalNodes>
          <leafValues>
            8.7047606706619263e-02 -2.0830865204334259e-01</leafValues></_>
        <_>
          <internalNodes>
            0 -1 743 1.3039920479059219e-02</internalNodes>
          <leafValues>
            4.0143385529518127e-02 -3.5826742649078369e-01</leafValues></_>
        <_>
          <internalNodes>
            0 -1 483 9.0018222108483315e-03</internalNodes>
          <leafValues>
            -5.3243909031152725e-02 3.1818297505378723e-01</leafValues></_></weakClassifiers></_>
    <!-- stage 3 -->
    <_>
      <maxWeakCount>92</maxWeakCount>
      <stageThreshold>-1.0377082824707031e+00</stageThreshold>
      <weakClassifiers>
        <_>
          <internalNodes>
            0 -1 477 1.3715308904647827e-01</internalNodes>
          <leafValues>
            1.3717421330511570e-02 -3.7295690178871155e-01</leafValues></_>
        <_>
          <internalNodes>
            0 -1 106 -2.6912873145192862e-03</internalNodes>
          <leafValues>
            -2.0203408598899841e-01 1.0697393119335175e-01</leafValues></_>
        <_>
          <internalNodes>
            0 -1 478 -7.4401348829269409e-02</internalNodes>
          <leafValues>
            -5.3680771589279175e-01 6.5304189920425415e-02</leafValues></_>
        <_>
          <internalNodes>
            0 -1 106 6.0671339742839336e-03</internalNodes>
          <leafValues>
            8.6644701659679413e-02 -2.2002863883972168e-01</leafValues></_>
        <_>
          <internalNodes>
            0 -1 543 4.2829653248190880e-03</internalNodes>
          <leafValues>
            -4.1026398539543152e-02 4.0994805097579956e-01</leafValues></_>
        <_>
          <internalNodes>
            0 -1 464 -1.1253264732658863e-02</internalNodes>
          <leafValues>
            3.2933411002159119e-01 -1.0155006498098373e-01</leafValues></_>
        <_>
          <internalNodes>
            0 -1 421 4.6747373417019844e-03</internalNodes>
          <leafValues>
            -2.5106210261583328e-02 4.0650221705436707e-01</leafValues></_>
        <_>
          <internalNodes>
            0 -1 243 6.5699541009962559e-03</internalNodes>
          <leafValues>
            7.7231615781784058e-02 -2.4966308474540710e-01</leafValues></_>
        <_>
          <internalNodes>
            0 -1 285 6.8185016512870789e-02</internalNodes>
          <leafValues>
            -8.0070225521922112e-03 -7.2375029325485229e-01</leafValues></_>
        <_>
          <internalNodes>
            0 -1 373 3.9389347657561302e-03</internalNodes>
          <leafValues>
            -2.7515605092048645e-02 4.5152688026428223e-01</leafValues></_>
        <_>
          <internalNodes>
            0 -1 121 4.4611757621169090e-03</internalNodes>
          <leafValues>
            -5.4008752107620239e-02 3.3977696299552917e-01</leafValues></_>
        <_>
          <internalNodes>
            0 -1 30 -5.8937510475516319e-03</internalNodes>
          <leafValues>
            -2.0926442742347717e-01 7.9732418060302734e-02</leafValues></_>
        <_>
          <internalNodes>
            0 -1 59 -5.4359771311283112e-02</internalNodes>
          <leafValues>
            -3.7962105870246887e-01 6.4369298517704010e-02</leafValues></_>
        <_>
          <internalNodes>
            0 -1 418 4.2179487645626068e-03</internalNodes>
          <leafValues>
            -7.8157119452953339e-02 2.5205513834953308e-01</leafValues></_>
        <_>
          <internalNodes>
            0 -1 367 -8.5563316941261292e-02</internalNodes>
          <leafValues>
            8.3960169553756714e-01 -1.3688932172954082e-02</leafValues></_>
        <_>
          <internalNodes>
            0 -1 55 -3.1883567571640015e-02</internalNodes>
          <leafValues>
            -4.2635196447372437e-01 3.9114873856306076e-02</leafValues></_>
        <_>
          <internalNodes>
            0 -1 77 -3.1883048359304667e-03</internalNodes>
          <leafValues>
            -2.0571944117546082e-01 8.4702037274837494e-02</leafValues></_>
        <_>
          <internalNodes>
            0 -1 54 4.3392940424382687e-03</internalNodes>
          <leafValues>
            -7.2173550724983215e-02 2.4601052701473236e-01</leafValues></_>
        <_>
          <internalNodes>
            0 -1 658 1.2077581137418747e-02</internalNodes>
          <leafValues>
            3.0846703797578812e-02 -5.2130573987960815e-01</leafValues></_>
        <_>
          <internalNodes>
            0 -1 549 7.2299700696021318e-04</internalNodes>
          <leafValues>
            8.0725610256195068e-02 -1.9671171903610229e-01</leafValues></_>
        <_>
          <internalNodes>
            0 -1 721 4.1688263416290283e-02</internalNodes>
          <leafValues>
            4.4605270028114319e-02 -3.6206486821174622e-01</leafValues></_>
        <_>
          <internalNodes>
            0 -1 744 -3.1160097569227219e-03</internalNodes>
          <leafValues>
            -1.7945054173469543e-01 9.5478542149066925e-02</leafValues></_>
        <_>
          <internalNodes>
            0 -1 419 -7.2062849067151546e-03</internalNodes>
          <leafValues>
            2.4411459267139435e-01 -7.1846395730972290e-02</leafValues></_>
        <_>
          <internalNodes>
            0 -1 701 3.9607631042599678e-03</internalNodes>
          <leafValues>
            -4.6144656836986542e-02 3.2445949316024780e-01</leafValues></_>
        <_>
          <internalNodes>
            0 -1 729 -3.1823334284126759e-03</internalNodes>
          <leafValues>
            -1.7613910138607025e-01 8.8213376700878143e-02</leafValues></_>
        <_>
          <internalNodes>
            0 -1 336 -2.3276485502719879e-02</internalNodes>
          <leafValues>
            4.6279993653297424e-01 -3.1347852200269699e-02</leafValues></_>
        <_>
          <internalNodes>
            0 -1 636 5.0030546262860298e-03</internalNodes>
          <leafValues>
            -4.0107619017362595e-02 3.8505846261978149e-01</leafValues></_>
        <_>
          <internalNodes>
            0 -1 382 -5.6957837194204330e-02</internalNodes>
          <leafValues>
            -4.3185985088348389e-01 3.7324853241443634e-02</leafValues></_>
        <_>
          <internalNodes>
            0 -1 714 4.8104117740876973e-04</internalNodes>
          <leafValues>
            7.3418512940406799e-02 -2.1228411793708801e-01</leafValues></_>
        <_>
          <internalNodes>
            0 -1 600 -4.7176848165690899e-03</internalNodes>
          <leafValues>
            3.6006909608840942e-01 -4.5776389539241791e-02</leafValues></_>
        <_>
          <internalNodes>
            0 -1 558 5.0290757790207863e-03</internalNodes>
          <leafValues>
            -3.0266607180237770e-02 5.4171931743621826e-01</leafValues></_>
        <_>
          <internalNodes>
            0 -1 570 -3.6579137668013573e-03</internalNodes>
          <leafValues>
            4.3757444620132446e-01 -3.1983163207769394e-02</leafValues></_>
        <_>
          <internalNodes>
            0 -1 686 4.8602912575006485e-03</internalNodes>
          <leafValues>
            -4.6396803110837936e-02 3.1243488192558289e-01</leafValues></_>
        <_>
          <internalNodes>
            0 -1 759 -6.9007033016532660e-04</internalNodes>
          <leafValues>
            -2.1835695207118988e-01 6.8641796708106995e-02</leafValues></_>
        <_>
          <internalNodes>
            0 -1 445 2.0081635564565659e-02</internalNodes>
          <leafValues>
            -4.8028055578470230e-02 3.3610627055168152e-01</leafValues></_>
        <_>
          <internalNodes>
            0 -1 756 -1.0074373567476869e-03</internalNodes>
          <leafValues>
            -1.4818732440471649e-01 1.0453053563833237e-01</leafValues></_>
        <_>
          <internalNodes>
            0 -1 179 3.7397090345621109e-03</internalNodes>
          <leafValues>
            -5.6236118078231812e-02 2.6594299077987671e-01</leafValues></_>
        <_>
          <internalNodes>
            0 -1 568 4.4934134930372238e-03</internalNodes>
          <leafValues>
            -4.6013195067644119e-02 3.0035057663917542e-01</leafValues></_>
        <_>
          <internalNodes>
            0 -1 720 1.1718518100678921e-02</internalNodes>
          <leafValues>
            5.0343953073024750e-02 -2.9755440354347229e-01</leafValues></_>
        <_>
          <internalNodes>
            0 -1 360 3.6663240753114223e-03</internalNodes>
          <leafValues>
            6.5356306731700897e-02 -2.1778120100498199e-01</leafValues></_>
        <_>
          <internalNodes>
            0 -1 469 3.8026086986064911e-03</internalNodes>
          <leafValues>
            -5.0931580364704132e-02 2.8129053115844727e-01</leafValues></_>
        <_>
          <internalNodes>
            0 -1 343 4.5864181593060493e-03</internalNodes>
          <leafValues>
            -3.1820155680179596e-02 4.5350968837738037e-01</leafValues></_>
        <_>
          <internalNodes>
            0 -1 314 -5.4481830447912216e-03</internalNodes>
          <leafValues>
            4.0542906522750854e-01 -3.1982786953449249e-02</leafValues></_>
        <_>
          <internalNodes>
            0 -1 500 2.6955556124448776e-02</internalNodes>
          <leafValues>
            3.8827527314424515e-02 -3.8720646500587463e-01</leafValues></_>
        <_>
          <internalNodes>
            0 -1 451 4.1960375383496284e-03</internalNodes>
          <leafValues>
            -5.3387340158224106e-02 2.7342060208320618e-01</leafValues></_>
        <_>
          <internalNodes>
            0 -1 492 2.2235163487493992e-03</internalNodes>
          <leafValues>
            -6.8261824548244476e-02 2.1510101854801178e-01</leafValues></_>
        <_>
          <internalNodes>
            0 -1 197 -2.5254812091588974e-02</internalNodes>
          <leafValues>
            -2.8329592943191528e-01 5.1558166742324829e-02</leafValues></_>
        <_>
          <internalNodes>
            0 -1 590 -1.0557010769844055e-02</internalNodes>
          <leafValues>
            2.6718860864639282e-01 -5.3164571523666382e-02</leafValues></_>
        <_>
          <internalNodes>
            0 -1 748 1.2759491801261902e-02</internalNodes>
          <leafValues>
            6.0188326984643936e-02 -2.3330947756767273e-01</leafValues></_>
        <_>
          <internalNodes>
            0 -1 472 -2.6626773178577423e-02</internalNodes>
          <leafValues>
            -4.4735941290855408e-01 3.4052707254886627e-02</leafValues></_>
        <_>
          <internalNodes>
            0 -1 556 -4.5628309249877930e-02</internalNodes>
          <leafValues>
            4.9917185306549072e-01 -3.4116595983505249e-02</leafValues></_>
        <_>
          <internalNodes>
            0 -1 208 6.4384557306766510e-02</internalNodes>
          <leafValues>
            3.3516328781843185e-02 -4.6858620643615723e-01</leafValues></_>
        <_>
          <internalNodes>
            0 -1 379 -2.4336842820048332e-02</internalNodes>
          <leafValues>
            -3.1111443042755127e-01 4.8486933112144470e-02</leafValues></_>
        <_>
          <internalNodes>
            0 -1 388 6.1701640486717224e-02</internalNodes>
          <leafValues>
            3.5956341773271561e-02 -3.9988607168197632e-01</leafValues></_>
        <_>
          <internalNodes>
            0 -1 435 -3.1214505434036255e-02</internalNodes>
          <leafValues>
            -5.4738020896911621e-01 2.5340812280774117e-02</leafValues></_>
        <_>
          <internalNodes>
            0 -1 479 -3.8064446300268173e-02</internalNodes>
          <leafValues>
            -3.9541694521903992e-01 3.5934578627347946e-02</leafValues></_>
        <_>
          <internalNodes>
            0 -1 688 -5.3248228505253792e-03</internalNodes>
          <leafValues>
            4.4614616036415100e-01 -3.4162215888500214e-02</leafValues></_>
        <_>
          <internalNodes>
            0 -1 3 1.6958656487986445e-05</internalNodes>
          <leafValues>
            -1.4739015698432922e-01 1.0577657073736191e-01</leafValues></_>
        <_>
          <internalNodes>
            0 -1 17 1.7231415957212448e-02</internalNodes>
          <leafValues>
            3.0263418331742287e-02 -4.5811635255813599e-01</leafValues></_>
        <_>
          <internalNodes>
            0 -1 666 4.3689338490366936e-03</internalNodes>
          <leafValues>
            -4.5619703829288483e-02 3.2591792941093445e-01</leafValues></_>
        <_>
          <internalNodes>
            0 -1 116 4.0302116423845291e-02</internalNodes>
          <leafValues>
            7.5624346733093262e-02 -1.8468531966209412e-01</leafValues></_>
        <_>
          <internalNodes>
            0 -1 230 -6.0065491124987602e-03</internalNodes>
          <leafValues>
            4.9147284030914307e-01 -2.7644965797662735e-02</leafValues></_>
        <_>
          <internalNodes>
            0 -1 147 1.8074875697493553e-04</internalNodes>
          <leafValues>
            -1.0565155744552612e-01 1.2883797287940979e-01</leafValues></_>
        <_>
          <internalNodes>
            0 -1 256 5.7518750429153442e-02</internalNodes>
          <leafValues>
            -5.4903492331504822e-02 2.8081792593002319e-01</leafValues></_>
        <_>
          <internalNodes>
            0 -1 231 -9.3067837879061699e-03</internalNodes>
          <leafValues>
            3.5283872485160828e-01 -4.2204856872558594e-02</leafValues></_>
        <_>
          <internalNodes>
            0 -1 164 -5.5629100650548935e-02</internalNodes>
          <leafValues>
            5.5322086811065674e-01 -2.2408474236726761e-02</leafValues></_>
        <_>
          <internalNodes>
            0 -1 191 -1.6736602410674095e-03</internalNodes>
          <leafValues>
            -2.3819199204444885e-01 6.2738418579101563e-02</leafValues></_>
        <_>
          <internalNodes>
            0 -1 442 -5.8466969057917595e-03</internalNodes>
          <leafValues>
            3.3276173472404480e-01 -4.4804360717535019e-02</leafValues></_>
        <_>
          <internalNodes>
            0 -1 391 -6.2825242057442665e-03</internalNodes>
          <leafValues>
            2.6866844296455383e-01 -4.6946778893470764e-02</leafValues></_>
        <_>
          <internalNodes>
            0 -1 762 -8.5298361955210567e-04</internalNodes>
          <leafValues>
            -2.2912847995758057e-01 6.2088087201118469e-02</leafValues></_>
        <_>
          <internalNodes>
            0 -1 598 2.6383434887975454e-03</internalNodes>
          <leafValues>
            -4.9492217600345612e-02 2.6803186535835266e-01</leafValues></_>
        <_>
          <internalNodes>
            0 -1 576 2.8481609188020229e-03</internalNodes>
          <leafValues>
            -6.8512558937072754e-02 2.3866853117942810e-01</leafValues></_>
        <_>
          <internalNodes>
            0 -1 592 3.3024802803993225e-02</internalNodes>
          <leafValues>
            3.3985767513513565e-02 -4.6576908230781555e-01</leafValues></_>
        <_>
          <internalNodes>
            0 -1 309 -1.5816908329725266e-02</internalNodes>
          <leafValues>
            1.2523381412029266e-01 -1.0815619677305222e-01</leafValues></_>
        <_>
          <internalNodes>
            0 -1 569 6.9622613489627838e-02</internalNodes>
          <leafValues>
            -4.4781979173421860e-02 3.0693447589874268e-01</leafValues></_>
        <_>
          <internalNodes>
            0 -1 355 -2.2855415940284729e-02</internalNodes>
          <leafValues>
            1.8028569221496582e-01 -7.8841768205165863e-02</leafValues></_>
        <_>
          <internalNodes>
            0 -1 87 -1.6823112964630127e-02</internalNodes>
          <leafValues>
            -3.8327983021736145e-01 3.6350727081298828e-02</leafValues></_>
        <_>
          <internalNodes>
            0 -1 695 -8.9242326794192195e-05</internalNodes>
          <leafValues>
            9.9490523338317871e-02 -1.2214582413434982e-01</leafValues></_>
        <_>
          <internalNodes>
            0 -1 444 -3.8145869970321655e-02</internalNodes>
          <leafValues>
            -4.7835329174995422e-01 2.7201024815440178e-02</leafValues></_>
        <_>
          <internalNodes>
            0 -1 96 1.6217359807342291e-03</internalNodes>
          <leafValues>
            6.5216973423957825e-02 -1.9995449483394623e-01</leafValues></_>
        <_>
          <internalNodes>
            0 -1 37 -4.4827936217188835e-03</internalNodes>
          <leafValues>
            2.9599404335021973e-01 -5.1598958671092987e-02</leafValues></_>
        <_>
          <internalNodes>
            0 -1 146 2.7886403258889914e-03</internalNodes>
          <leafValues>
            5.9388019144535065e-02 -2.2921299934387207e-01</leafValues></_>
        <_>
          <internalNodes>
            0 -1 567 4.0730750188231468e-03</internalNodes>
          <leafValues>
            -7.3945507407188416e-02 1.8221557140350342e-01</leafValues></_>
        <_>
          <internalNodes>
            0 -1 596 5.0770290195941925e-02</internalNodes>
          <leafValues>
            1.9118312746286392e-02 -7.4356287717819214e-01</leafValues></_>
        <_>
          <internalNodes>
            0 -1 228 -4.5054405927658081e-03</internalNodes>
          <leafValues>
            2.1231925487518311e-01 -6.4058490097522736e-02</leafValues></_>
        <_>
          <internalNodes>
            0 -1 755 -9.2431320808827877e-04</internalNodes>
          <leafValues>
            -2.3258416354656219e-01 5.7477373629808426e-02</leafValues></_>
        <_>
          <internalNodes>
            0 -1 470 7.7690750360488892e-02</internalNodes>
          <leafValues>
            -1.9849557429552078e-02 6.7344337701797485e-01</leafValues></_>
        <_>
          <internalNodes>
            0 -1 394 -2.7189464308321476e-03</internalNodes>
          <leafValues>
            -2.1247956156730652e-01 6.9922849535942078e-02</leafValues></_>
        <_>
          <internalNodes>
            0 -1 656 3.4179384820163250e-03</internalNodes>
          <leafValues>
            -4.9847293645143509e-02 2.8406932950019836e-01</leafValues></_>
        <_>
          <internalNodes>
            0 -1 157 3.4870341420173645e-02</internalNodes>
          <leafValues>
            3.1798209995031357e-02 -4.5226833224296570e-01</leafValues></_>
        <_>
          <internalNodes>
            0 -1 385 -5.3479908965528011e-03</internalNodes>
          <leafValues>
            3.7742507457733154e-01 -3.7067331373691559e-02</leafValues></_>
        <_>
          <internalNodes>
            0 -1 339 -8.3955504000186920e-02</internalNodes>
          <leafValues>
            -4.5470970869064331e-01 2.9928298667073250e-02</leafValues></_></weakClassifiers></_>
    <!-- stage 4 -->
    <_>
      <maxWeakCount>100</maxWeakCount>
      <stageThreshold>-3.4051576256752014e-01</stageThreshold>
      <weakClassifiers>
        <_>
          <internalNodes>
            0 -1 247 5.6930046528577805e-02</internalNodes>
          <leafValues>
            -1.0441400110721588e-01 4.3421053886413574e-01</leafValues></_>
        <_>
          <internalNodes>
            0 -1 247 5.6622989475727081e-02</internalNodes>
          <leafValues>
            1.2745921267196536e-03 -1.</leafValues></_>
        <_>
          <internalNodes>
            0 -1 247 5.6357510387897491e-02</internalNodes>
          <leafValues>
            -1.4901943504810333e-03 9.9080336093902588e-01</leafValues></_>
        <_>
          <internalNodes>
            0 -1 247 5.6301727890968323e-02</internalNodes>
          <leafValues>
            2.7693048468790948e-04 -1.</leafValues></_>
        <_>
          <internalNodes>
            0 -1 247 5.6234825402498245e-02</internalNodes>
          <leafValues>
            -3.4141345531679690e-04 1.</leafValues></_>
        <_>
          <internalNodes>
            0 -1 247 5.6188441812992096e-02</internalNodes>
          <leafValues>
            2.7708505513146520e-04 -1.</leafValues></_>
        <_>
          <internalNodes>
            0 -1 247 5.5455401539802551e-02</internalNodes>
          <leafValues>
            -1.0907507967203856e-03 9.9550217390060425e-01</leafValues></_>
        <_>
          <internalNodes>
            0 -1 247 5.5128894746303558e-02</internalNodes>
          <leafValues>
            5.5493850959464908e-04 -1.</leafValues></_>
        <_>
          <internalNodes>
            0 -1 247 5.5065751075744629e-02</internalNodes>
          <leafValues>
            -3.4258302184753120e-04 1.</leafValues></_>
        <_>
          <internalNodes>
            0 -1 247 5.4811585694551468e-02</internalNodes>
          <leafValues>
            8.3356484537944198e-04 -1.</leafValues></_>
        <_>
          <internalNodes>
            0 -1 247 5.4187275469303131e-02</internalNodes>
          <leafValues>
            -2.0604394376277924e-03 1.</leafValues></_>
        <_>
          <internalNodes>
            0 -1 247 5.3787879645824432e-02</internalNodes>
          <leafValues>
            5.5648013949394226e-04 -1.</leafValues></_>
        <_>
          <internalNodes>
            0 -1 247 5.3635008633136749e-02</internalNodes>
          <leafValues>
            -3.4423402394168079e-04 1.</leafValues></_>
        <_>
          <internalNodes>
            0 -1 247 5.3506389260292053e-02</internalNodes>
          <leafValues>
            5.5710307788103819e-04 -1.</leafValues></_>
        <_>
          <internalNodes>
            0 -1 247 5.3502880036830902e-02</internalNodes>
          <leafValues>
            -3.4447119105607271e-04 1.</leafValues></_>
        <_>
          <internalNodes>
            0 -1 247 5.3170889616012573e-02</internalNodes>
          <leafValues>
            1.3303338782861829e-03 -9.8509865999221802e-01</leafValues></_>
        <_>
          <internalNodes>
            0 -1 247 5.2975289523601532e-02</internalNodes>
          <leafValues>
            -6.9013034226372838e-04 9.8685479164123535e-01</leafValues></_>
        <_>
          <internalNodes>
            0 -1 247 5.2947483956813812e-02</internalNodes>
          <leafValues>
            2.7972017414867878e-04 -9.8558467626571655e-01</leafValues></_>
        <_>
          <internalNodes>
            0 -1 247 5.2885815501213074e-02</internalNodes>
          <leafValues>
            -3.4542314824648201e-04 9.8685693740844727e-01</leafValues></_>
        <_>
          <internalNodes>
            0 -1 247 5.2794814109802246e-02</internalNodes>
          <leafValues>
            2.7987684006802738e-04 -9.8570448160171509e-01</leafValues></_>
        <_>
          <internalNodes>
            0 -1 247 5.2710913121700287e-02</internalNodes>
          <leafValues>
            -6.9156294921413064e-04 9.8689723014831543e-01</leafValues></_>
        <_>
          <internalNodes>
            0 -1 247 5.2651703357696533e-02</internalNodes>
          <leafValues>
            2.8003350598737597e-04 -9.8598206043243408e-01</leafValues></_>
        <_>
          <internalNodes>
            0 -1 247 5.2604168653488159e-02</internalNodes>
          <leafValues>
            -6.9252075627446175e-04 9.8694324493408203e-01</leafValues></_>
        <_>
          <internalNodes>
            0 -1 247 5.2487298846244812e-02</internalNodes>
          <leafValues>
            8.4104278357699513e-04 -9.8624342679977417e-01</leafValues></_>
        <_>
          <internalNodes>
            0 -1 247 5.1953293383121490e-02</internalNodes>
          <leafValues>
            -1.3879248872399330e-03 9.8706293106079102e-01</leafValues></_>
        <_>
          <internalNodes>
            0 -1 247 5.1832742989063263e-02</internalNodes>
          <leafValues>
            8.4245909238234162e-04 -9.8649209737777710e-01</leafValues></_>
        <_>
          <internalNodes>
            0 -1 247 5.1295123994350433e-02</internalNodes>
          <leafValues>
            -6.9541006814688444e-04 9.8711621761322021e-01</leafValues></_>
        <_>
          <internalNodes>
            0 -1 247 5.1054872572422028e-02</internalNodes>
          <leafValues>
            8.4388174582272768e-04 -9.8672735691070557e-01</leafValues></_>
        <_>
          <internalNodes>
            0 -1 247 5.0663962960243225e-02</internalNodes>
          <leafValues>
            -1.8104402115568519e-03 9.8315906524658203e-01</leafValues></_>
        <_>
          <internalNodes>
            0 -1 247 4.9265325069427490e-02</internalNodes>
          <leafValues>
            2.1255603060126305e-03 -9.6107476949691772e-01</leafValues></_>
        <_>
          <internalNodes>
            0 -1 247 4.8613764345645905e-02</internalNodes>
          <leafValues>
            -1.4015384949743748e-03 9.8282343149185181e-01</leafValues></_>
        <_>
          <internalNodes>
            0 -1 247 4.8145912587642670e-02</internalNodes>
          <leafValues>
            1.4184388564899564e-03 -9.6621417999267578e-01</leafValues></_>
        <_>
          <internalNodes>
            0 -1 247 4.7742348164319992e-02</internalNodes>
          <leafValues>
            -7.0224626688286662e-04 9.8234075307846069e-01</leafValues></_>
        <_>
          <internalNodes>
            0 -1 247 4.7619611024856567e-02</internalNodes>
          <leafValues>
            2.8417151770554483e-04 -9.6741819381713867e-01</leafValues></_>
        <_>
          <internalNodes>
            0 -1 247 4.7559697180986404e-02</internalNodes>
          <leafValues>
            -3.5149382892996073e-04 9.8185849189758301e-01</leafValues></_>
        <_>
          <internalNodes>
            0 -1 247 4.7524727880954742e-02</internalNodes>
          <leafValues>
            2.8433321858756244e-04 -9.6847283840179443e-01</leafValues></_>
        <_>
          <internalNodes>
            0 -1 247 4.7203965485095978e-02</internalNodes>
          <leafValues>
            -1.1239561717957258e-03 9.7734463214874268e-01</leafValues></_>
        <_>
          <internalNodes>
            0 -1 247 4.6808868646621704e-02</internalNodes>
          <leafValues>
            1.1396006448194385e-03 -9.6990758180618286e-01</leafValues></_>
        <_>
          <internalNodes>
            0 -1 247 4.6617195010185242e-02</internalNodes>
          <leafValues>
            -1.0589476441964507e-03 9.7719061374664307e-01</leafValues></_>
        <_>
          <internalNodes>
            0 -1 247 4.6549096703529358e-02</internalNodes>
          <leafValues>
            5.7077588280662894e-04 -9.7058790922164917e-01</leafValues></_>
        <_>
          <internalNodes>
            0 -1 247 4.6455152332782745e-02</internalNodes>
          <leafValues>
            -3.5348173696547747e-04 9.7695201635360718e-01</leafValues></_>
        <_>
          <internalNodes>
            0 -1 247 4.6270206570625305e-02</internalNodes>
          <leafValues>
            8.5738778579980135e-04 -9.7131723165512085e-01</leafValues></_>
        <_>
          <internalNodes>
            0 -1 247 4.5925714075565338e-02</internalNodes>
          <leafValues>
            -1.0619467357173562e-03 9.7687822580337524e-01</leafValues></_>
        <_>
          <internalNodes>
            0 -1 247 4.5822933316230774e-02</internalNodes>
          <leafValues>
            5.7240942260250449e-04 -9.7186297178268433e-01</leafValues></_>
        <_>
          <internalNodes>
            0 -1 247 4.5737098902463913e-02</internalNodes>
          <leafValues>
            -3.5448416019789875e-04 9.7670960426330566e-01</leafValues></_>
        <_>
          <internalNodes>
            0 -1 247 4.5644879341125488e-02</internalNodes>
          <leafValues>
            5.7306588860228658e-04 -9.7235661745071411e-01</leafValues></_>
        <_>
          <internalNodes>
            0 -1 247 4.5601967722177505e-02</internalNodes>
          <leafValues>
            -3.5473564639687538e-04 9.7657048702239990e-01</leafValues></_>
        <_>
          <internalNodes>
            0 -1 247 4.5437961816787720e-02</internalNodes>
          <leafValues>
            5.7372346054762602e-04 -9.7280508279800415e-01</leafValues></_>
        <_>
          <internalNodes>
            0 -1 247 4.5198895037174225e-02</internalNodes>
          <leafValues>
            -1.0657192906364799e-03 9.7658210992813110e-01</leafValues></_>
        <_>
          <internalNodes>
            0 -1 247 4.5021280646324158e-02</internalNodes>
          <leafValues>
            5.7438213843852282e-04 -9.7322070598602295e-01</leafValues></_>
        <_>
          <internalNodes>
            0 -1 247 4.4929411262273788e-02</internalNodes>
          <leafValues>
            -7.1174371987581253e-04 9.7655010223388672e-01</leafValues></_>
        <_>
          <internalNodes>
            0 -1 247 4.4758401811122894e-02</internalNodes>
          <leafValues>
            2.8743880102410913e-04 -9.7350060939788818e-01</leafValues></_>
        <_>
          <internalNodes>
            0 -1 247 4.4583313167095184e-02</internalNodes>
          <leafValues>
            -3.5625221789814532e-04 9.7647047042846680e-01</leafValues></_>
        <_>
          <internalNodes>
            0 -1 247 4.4523559510707855e-02</internalNodes>
          <leafValues>
            2.8760422719642520e-04 -9.7375828027725220e-01</leafValues></_>
        <_>
          <internalNodes>
            0 -1 247 4.4452629983425140e-02</internalNodes>
          <leafValues>
            -7.1326678153127432e-04 9.7646826505661011e-01</leafValues></_>
        <_>
          <internalNodes>
            0 -1 247 4.4384583830833435e-02</internalNodes>
          <leafValues>
            5.7570514036342502e-04 -9.7409981489181519e-01</leafValues></_>
        <_>
          <internalNodes>
            0 -1 247 4.4338900595903397e-02</internalNodes>
          <leafValues>
            -3.5701529122889042e-04 9.7641992568969727e-01</leafValues></_>
        <_>
          <internalNodes>
            0 -1 247 4.3836738914251328e-02</internalNodes>
          <leafValues>
            1.0848990641534328e-03 -9.6549314260482788e-01</leafValues></_>
        <_>
          <internalNodes>
            0 -1 247 4.3822988867759705e-02</internalNodes>
          <leafValues>
            -3.5752548137679696e-04 9.7613495588302612e-01</leafValues></_>
        <_>
          <internalNodes>
            0 -1 247 4.3816417455673218e-02</internalNodes>
          <leafValues>
            2.8893380658701062e-04 -9.6633297204971313e-01</leafValues></_>
        <_>
          <internalNodes>
            0 -1 247 4.3602257966995239e-02</internalNodes>
          <leafValues>
            -7.1581959491595626e-04 9.7579669952392578e-01</leafValues></_>
        <_>
          <internalNodes>
            0 -1 247 4.3541185557842255e-02</internalNodes>
          <leafValues>
            2.8910077526234090e-04 -9.6707487106323242e-01</leafValues></_>
        <_>
          <internalNodes>
            0 -1 247 4.3426584452390671e-02</internalNodes>
          <leafValues>
            -7.1684585418552160e-04 9.7550642490386963e-01</leafValues></_>
        <_>
          <internalNodes>
            0 -1 247 4.3366879224777222e-02</internalNodes>
          <leafValues>
            2.8926803497597575e-04 -9.6773374080657959e-01</leafValues></_>
        <_>
          <internalNodes>
            0 -1 247 4.3208770453929901e-02</internalNodes>
          <leafValues>
            -3.5880875657312572e-04 9.7519367933273315e-01</leafValues></_>
        <_>
          <internalNodes>
            0 -1 247 4.2919062077999115e-02</internalNodes>
          <leafValues>
            5.7903875131160021e-04 -9.6843081712722778e-01</leafValues></_>
        <_>
          <internalNodes>
            0 -1 247 4.2835578322410583e-02</internalNodes>
          <leafValues>
            -7.1839074371382594e-04 9.7499418258666992e-01</leafValues></_>
        <_>
          <internalNodes>
            0 -1 247 4.2739920318126678e-02</internalNodes>
          <leafValues>
            5.7971000205725431e-04 -9.6905547380447388e-01</leafValues></_>
        <_>
          <internalNodes>
            0 -1 247 4.2637962847948074e-02</internalNodes>
          <leafValues>
            -3.5958283115178347e-04 9.7476679086685181e-01</leafValues></_>
        <_>
          <internalNodes>
            0 -1 247 4.2550299316644669e-02</internalNodes>
          <leafValues>
            2.9010733123868704e-04 -9.6950829029083252e-01</leafValues></_>
        <_>
          <internalNodes>
            0 -1 247 4.2506847530603409e-02</internalNodes>
          <leafValues>
            -3.5984165151603520e-04 9.7457176446914673e-01</leafValues></_>
        <_>
          <internalNodes>
            0 -1 247 4.2478062212467194e-02</internalNodes>
          <leafValues>
            2.9027575510554016e-04 -9.6991533041000366e-01</leafValues></_>
        <_>
          <internalNodes>
            0 -1 247 4.2415469884872437e-02</internalNodes>
          <leafValues>
            -3.6010082112625241e-04 9.7440582513809204e-01</leafValues></_>
        <_>
          <internalNodes>
            0 -1 247 4.2335152626037598e-02</internalNodes>
          <leafValues>
            2.9044435359537601e-04 -9.7028261423110962e-01</leafValues></_>
        <_>
          <internalNodes>
            0 -1 247 4.2274415493011475e-02</internalNodes>
          <leafValues>
            -3.6036033998243511e-04 9.7426605224609375e-01</leafValues></_>
        <_>
          <internalNodes>
            0 -1 247 4.2130164802074432e-02</internalNodes>
          <leafValues>
            8.7234657257795334e-04 -9.7081428766250610e-01</leafValues></_>
        <_>
          <internalNodes>
            0 -1 247 4.2051065713167191e-02</internalNodes>
          <leafValues>
            -7.2150048799812794e-04 9.7422909736633301e-01</leafValues></_>
        <_>
          <internalNodes>
            0 -1 247 4.1663743555545807e-02</internalNodes>
          <leafValues>
            1.3881307095289230e-03 -9.6353238821029663e-01</leafValues></_>
        <_>
          <internalNodes>
            0 -1 247 4.1623547673225403e-02</internalNodes>
          <leafValues>
            -3.6140135489404202e-04 9.7393512725830078e-01</leafValues></_>
        <_>
          <internalNodes>
            0 -1 247 4.1497346013784409e-02</internalNodes>
          <leafValues>
            8.7693653767928481e-04 -9.6461623907089233e-01</leafValues></_>
        <_>
          <internalNodes>
            0 -1 247 4.1243001818656921e-02</internalNodes>
          <leafValues>
            -1.0857761371880770e-03 9.7284466028213501e-01</leafValues></_>
        <_>
          <internalNodes>
            0 -1 247 4.1140899062156677e-02</internalNodes>
          <leafValues>
            5.8547966182231903e-04 -9.6540552377700806e-01</leafValues></_>
        <_>
          <internalNodes>
            0 -1 247 4.1033789515495300e-02</internalNodes>
          <leafValues>
            -7.2516308864578605e-04 9.7209662199020386e-01</leafValues></_>
        <_>
          <internalNodes>
            0 -1 247 4.1011489927768707e-02</internalNodes>
          <leafValues>
            2.9299722518771887e-04 -9.6596521139144897e-01</leafValues></_>
        <_>
          <internalNodes>
            0 -1 247 4.0634989738464355e-02</internalNodes>
          <leafValues>
            -1.1603196617215872e-03 9.6693551540374756e-01</leafValues></_>
        <_>
          <internalNodes>
            0 -1 247 4.0453854948282242e-02</internalNodes>
          <leafValues>
            5.8685394469648600e-04 -9.6651846170425415e-01</leafValues></_>
        <_>
          <internalNodes>
            0 -1 247 4.0324866771697998e-02</internalNodes>
          <leafValues>
            -7.2833203012123704e-04 9.6709692478179932e-01</leafValues></_>
        <_>
          <internalNodes>
            0 -1 247 4.0200911462306976e-02</internalNodes>
          <leafValues>
            8.8157493155449629e-04 -9.6686476469039917e-01</leafValues></_>
        <_>
          <internalNodes>
            0 -1 247 4.0174767374992371e-02</internalNodes>
          <leafValues>
            -3.6456412635743618e-04 9.6702420711517334e-01</leafValues></_>
        <_>
          <internalNodes>
            0 -1 247 4.0082588791847229e-02</internalNodes>
          <leafValues>
            8.8313216110691428e-04 -9.6687525510787964e-01</leafValues></_>
        <_>
          <internalNodes>
            0 -1 247 4.0014371275901794e-02</internalNodes>
          <leafValues>
            -3.6483013536781073e-04 9.6664869785308838e-01</leafValues></_>
        <_>
          <internalNodes>
            0 -1 247 3.9960473775863647e-02</internalNodes>
          <leafValues>
            5.8962265029549599e-04 -9.6655213832855225e-01</leafValues></_>
        <_>
          <internalNodes>
            0 -1 247 3.9909534156322479e-02</internalNodes>
          <leafValues>
            -7.3046010220423341e-04 9.6683371067047119e-01</leafValues></_>
        <_>
          <internalNodes>
            0 -1 247 3.9547830820083618e-02</internalNodes>
          <leafValues>
            1.1813347227871418e-03 -9.6718168258666992e-01</leafValues></_>
        <_>
          <internalNodes>
            0 -1 247 3.9464689791202545e-02</internalNodes>
          <leafValues>
            -3.6563017056323588e-04 9.7150689363479614e-01</leafValues></_>
        <_>
          <internalNodes>
            0 -1 247 3.9368368685245514e-02</internalNodes>
          <leafValues>
            8.8783662067726254e-04 -9.6832692623138428e-01</leafValues></_>
        <_>
          <internalNodes>
            0 -1 247 3.9075497537851334e-02</internalNodes>
          <leafValues>
            -7.3206418892368674e-04 9.6693319082260132e-01</leafValues></_>
        <_>
          <internalNodes>
            0 -1 247 3.8317471742630005e-02</internalNodes>
          <leafValues>
            1.7113344511017203e-03 -9.6151703596115112e-01</leafValues></_>
        <_>
          <internalNodes>
            0 -1 247 3.7897288799285889e-02</internalNodes>
          <leafValues>
            -2.7148060034960508e-03 9.5885419845581055e-01</leafValues></_>
        <_>
          <internalNodes>
            0 -1 247 3.7368386983871460e-02</internalNodes>
          <leafValues>
            2.0889220759272575e-03 -9.6123003959655762e-01</leafValues></_></weakClassifiers></_>
    <!-- stage 5 -->
    <_>
      <maxWeakCount>100</maxWeakCount>
      <stageThreshold>-1.2648729085922241e+00</stageThreshold>
      <weakClassifiers>
        <_>
          <internalNodes>
            0 -1 158 2.7557324618101120e-02</internalNodes>
          <leafValues>
            -1.3031643629074097e-01 2.6461538672447205e-01</leafValues></_>
        <_>
          <internalNodes>
            0 -1 436 4.9012042582035065e-03</internalNodes>
          <leafValues>
            -4.5982632786035538e-02 4.0583235025405884e-01</leafValues></_>
        <_>
          <internalNodes>
            0 -1 436 4.8739099875092506e-03</internalNodes>
          <leafValues>
            1.0255357483401895e-03 -1.</leafValues></_>
        <_>
          <internalNodes>
            0 -1 436 4.8630544915795326e-03</internalNodes>
          <leafValues>
            -7.5244810432195663e-04 1.</leafValues></_>
        <_>
          <internalNodes>
            0 -1 436 4.8515857197344303e-03</internalNodes>
          <leafValues>
            9.2340802075341344e-04 -1.</leafValues></_>
        <_>
          <internalNodes>
            0 -1 436 4.8430403694510460e-03</internalNodes>
          <leafValues>
            -7.5358228059485555e-04 1.</leafValues></_>
        <_>
          <internalNodes>
            0 -1 436 4.8378035426139832e-03</internalNodes>
          <leafValues>
            5.3081335499882698e-04 -1.</leafValues></_>
        <_>
          <internalNodes>
            0 -1 436 4.8255082219839096e-03</internalNodes>
          <leafValues>
            -1.1325073428452015e-03 1.</leafValues></_>
        <_>
          <internalNodes>
            0 -1 436 4.7952518798410892e-03</internalNodes>
          <leafValues>
            6.6013063769787550e-04 -1.</leafValues></_>
        <_>
          <internalNodes>
            0 -1 436 4.7887833788990974e-03</internalNodes>
          <leafValues>
            -3.7807325134053826e-04 1.</leafValues></_>
        <_>
          <internalNodes>
            0 -1 436 4.7829365357756615e-03</internalNodes>
          <leafValues>
            2.6596922543831170e-04 -1.</leafValues></_>
        <_>
          <internalNodes>
            0 -1 436 4.7751013189554214e-03</internalNodes>
          <leafValues>
            -7.5700529851019382e-04 1.</leafValues></_>
        <_>
          <internalNodes>
            0 -1 436 4.7519165091216564e-03</internalNodes>
          <leafValues>
            5.3236313397064805e-04 -1.</leafValues></_>
        <_>
          <internalNodes>
            0 -1 436 4.7179958783090115e-03</internalNodes>
          <leafValues>
            -6.3439179211854935e-04 1.</leafValues></_>
        <_>
          <internalNodes>
            0 -1 522 -6.0854181647300720e-03</internalNodes>
          <leafValues>
            4.5506063103675842e-01 -4.6016260981559753e-02</leafValues></_>
        <_>
          <internalNodes>
            0 -1 522 -5.9744361788034439e-03</internalNodes>
          <leafValues>
            -9.8669129610061646e-01 1.9628715235739946e-03</leafValues></_>
        <_>
          <internalNodes>
            0 -1 522 -5.8628143742680550e-03</internalNodes>
          <leafValues>
            9.8908805847167969e-01 -1.8301418749615550e-03</leafValues></_>
        <_>
          <internalNodes>
            0 -1 522 -5.8360798284411430e-03</internalNodes>
          <leafValues>
            -9.8713558912277222e-01 5.0362118054181337e-04</leafValues></_>
        <_>
          <internalNodes>
            0 -1 522 -5.6841489858925343e-03</internalNodes>
          <leafValues>
            9.8056393861770630e-01 -2.1033827215433121e-03</leafValues></_>
        <_>
          <internalNodes>
            0 -1 522 -5.6480676867067814e-03</internalNodes>
          <leafValues>
            -9.8756676912307739e-01 1.1321804486215115e-03</leafValues></_>
        <_>
          <internalNodes>
            0 -1 522 -5.5654007010161877e-03</internalNodes>
          <leafValues>
            9.8112517595291138e-01 -1.5608369139954448e-03</leafValues></_>
        <_>
          <internalNodes>
            0 -1 522 -5.5305585265159607e-03</internalNodes>
          <leafValues>
            -9.8670428991317749e-01 7.5090979225933552e-04</leafValues></_>
        <_>
          <internalNodes>
            0 -1 522 -5.4812021553516388e-03</internalNodes>
          <leafValues>
            9.9399197101593018e-01 -1.4425857225432992e-03</leafValues></_>
        <_>
          <internalNodes>
            0 -1 522 -5.4335463792085648e-03</internalNodes>
          <leafValues>
            -9.8794072866439819e-01 5.0654390361160040e-04</leafValues></_>
        <_>
          <internalNodes>
            0 -1 522 -5.3955959156155586e-03</internalNodes>
          <leafValues>
            9.8969978094100952e-01 -3.9746292168274522e-04</leafValues></_>
        <_>
          <internalNodes>
            0 -1 522 -5.3048850968480110e-03</internalNodes>
          <leafValues>
            -9.7783178091049194e-01 1.4150835340842605e-03</leafValues></_>
        <_>
          <internalNodes>
            0 -1 522 -5.2734911441802979e-03</internalNodes>
          <leafValues>
            9.8109108209609985e-01 -1.3184866402298212e-03</leafValues></_>
        <_>
          <internalNodes>
            0 -1 522 -5.2571455016732216e-03</internalNodes>
          <leafValues>
            -9.8873728513717651e-01 5.0875317538157105e-04</leafValues></_>
        <_>
          <internalNodes>
            0 -1 522 -5.2337199449539185e-03</internalNodes>
          <leafValues>
            9.8153758049011230e-01 -1.0676148813217878e-03</leafValues></_>
        <_>
          <internalNodes>
            0 -1 522 -5.1845386624336243e-03</internalNodes>
          <leafValues>
            -9.6666467189788818e-01 1.0197944939136505e-03</leafValues></_>
        <_>
          <internalNodes>
            0 -1 522 -5.1283785142004490e-03</internalNodes>
          <leafValues>
            9.7717195749282837e-01 -1.2161693302914500e-03</leafValues></_>
        <_>
          <internalNodes>
            0 -1 522 -5.1171332597732544e-03</internalNodes>
          <leafValues>
            -9.8933857679367065e-01 4.0144461672753096e-04</leafValues></_>
        <_>
          <internalNodes>
            0 -1 522 -5.1105059683322906e-03</internalNodes>
          <leafValues>
            9.8180013895034790e-01 -2.7030945057049394e-04</leafValues></_>
        <_>
          <internalNodes>
            0 -1 522 -5.1044039428234100e-03</internalNodes>
          <leafValues>
            -9.7873252630233765e-01 2.5555645697750151e-04</leafValues></_>
        <_>
          <internalNodes>
            0 -1 522 -5.0944965332746506e-03</internalNodes>
          <leafValues>
            9.8174786567687988e-01 -4.0148536209017038e-04</leafValues></_>
        <_>
          <internalNodes>
            0 -1 522 -5.0825746729969978e-03</internalNodes>
          <leafValues>
            -9.8929703235626221e-01 5.1150505896657705e-04</leafValues></_>
        <_>
          <internalNodes>
            0 -1 522 -5.0725135952234268e-03</internalNodes>
          <leafValues>
            9.8214799165725708e-01 -4.0180794894695282e-04</leafValues></_>
        <_>
          <internalNodes>
            0 -1 522 -5.0321752205491066e-03</internalNodes>
          <leafValues>
            -9.6889925003051758e-01 8.9236587518826127e-04</leafValues></_>
        <_>
          <internalNodes>
            0 -1 522 -4.9791443161666393e-03</internalNodes>
          <leafValues>
            9.8167943954467773e-01 -8.0458563752472401e-04</leafValues></_>
        <_>
          <internalNodes>
            0 -1 522 -4.9402131699025631e-03</internalNodes>
          <leafValues>
            -9.9002170562744141e-01 1.6649517929181457e-03</leafValues></_>
        <_>
          <internalNodes>
            0 -1 522 -4.9343146383762360e-03</internalNodes>
          <leafValues>
            9.8205232620239258e-01 -2.5619805091992021e-04</leafValues></_>
        <_>
          <internalNodes>
            0 -1 522 -4.9294419586658478e-03</internalNodes>
          <leafValues>
            -9.7984892129898071e-01 3.8189673796296120e-04</leafValues></_>
        <_>
          <internalNodes>
            0 -1 522 -4.8956107348203659e-03</internalNodes>
          <leafValues>
            9.7632378339767456e-01 -1.3569589937105775e-03</leafValues></_>
        <_>
          <internalNodes>
            0 -1 522 -4.8886621370911598e-03</internalNodes>
          <leafValues>
            -9.7193133831024170e-01 7.6525390613824129e-04</leafValues></_>
        <_>
          <internalNodes>
            0 -1 522 -4.8861792311072350e-03</internalNodes>
          <leafValues>
            9.7612333297729492e-01 -5.4497289238497615e-04</leafValues></_>
        <_>
          <internalNodes>
            0 -1 522 -4.8856297507882118e-03</internalNodes>
          <leafValues>
            -9.7228896617889404e-01 2.5804992765188217e-04</leafValues></_>
        <_>
          <internalNodes>
            0 -1 522 -4.8735509626567364e-03</internalNodes>
          <leafValues>
            9.7208106517791748e-01 -4.0483145858161151e-04</leafValues></_>
        <_>
          <internalNodes>
            0 -1 522 -4.8466268926858902e-03</internalNodes>
          <leafValues>
            -9.7252738475799561e-01 5.1649980014190078e-04</leafValues></_>
        <_>
          <internalNodes>
            0 -1 522 -4.8356046900153160e-03</internalNodes>
          <leafValues>
            9.7227889299392700e-01 -8.1064738333225250e-04</leafValues></_>
        <_>
          <internalNodes>
            0 -1 522 -4.7909864224493504e-03</internalNodes>
          <leafValues>
            -9.7288048267364502e-01 7.7575125033035874e-04</leafValues></_>
        <_>
          <internalNodes>
            0 -1 522 -4.7666407190263271e-03</internalNodes>
          <leafValues>
            9.7239744663238525e-01 -4.0581703069619834e-04</leafValues></_>
        <_>
          <internalNodes>
            0 -1 522 -4.7425804659724236e-03</internalNodes>
          <leafValues>
            -9.7297489643096924e-01 2.5885153445415199e-04</leafValues></_>
        <_>
          <internalNodes>
            0 -1 522 -4.7240694984793663e-03</internalNodes>
          <leafValues>
            9.7636580467224121e-01 -2.7359538944438100e-04</leafValues></_>
        <_>
          <internalNodes>
            0 -1 522 -4.6967305243015289e-03</internalNodes>
          <leafValues>
            -9.8199307918548584e-01 5.1810540026053786e-04</leafValues></_>
        <_>
          <internalNodes>
            0 -1 522 -4.6936972066760063e-03</internalNodes>
          <leafValues>
            9.7674423456192017e-01 -4.0636915946379304e-04</leafValues></_>
        <_>
          <internalNodes>
            0 -1 522 -4.6782507561147213e-03</internalNodes>
          <leafValues>
            -9.7323077917098999e-01 2.5925418594852090e-04</leafValues></_>
        <_>
          <internalNodes>
            0 -1 522 -4.6560470946133137e-03</internalNodes>
          <leafValues>
            9.7663062810897827e-01 -5.3280271822586656e-04</leafValues></_>
        <_>
          <internalNodes>
            0 -1 522 -4.6273823827505112e-03</internalNodes>
          <leafValues>
            -9.7381788492202759e-01 9.2712882906198502e-04</leafValues></_>
        <_>
          <internalNodes>
            0 -1 522 -4.5735118910670280e-03</internalNodes>
          <leafValues>
            9.6910297870635986e-01 -1.3486376265063882e-03</leafValues></_>
        <_>
          <internalNodes>
            0 -1 521 -4.4442042708396912e-03</internalNodes>
          <leafValues>
            3.4137168526649475e-01 -8.5263662040233612e-02</leafValues></_>
        <_>
          <internalNodes>
            0 -1 141 -2.5471842382103205e-03</internalNodes>
          <leafValues>
            -2.4928426742553711e-01 7.3065608739852905e-02</leafValues></_>
        <_>
          <internalNodes>
            0 -1 726 4.4521093368530273e-02</internalNodes>
          <leafValues>
            -2.4177588522434235e-02 6.8300497531890869e-01</leafValues></_>
        <_>
          <internalNodes>
            0 -1 527 -1.6152780503034592e-02</internalNodes>
          <leafValues>
            4.3682745099067688e-01 -3.6472607403993607e-02</leafValues></_>
        <_>
          <internalNodes>
            0 -1 502 -1.1814361438155174e-02</internalNodes>
          <leafValues>
            8.4911084175109863e-01 -5.5768112652003765e-03</leafValues></_>
        <_>
          <internalNodes>
            0 -1 715 -3.7043933843960986e-05</internalNodes>
          <leafValues>
            1.1938590556383133e-01 -1.3056434690952301e-01</leafValues></_>
        <_>
          <internalNodes>
            0 -1 104 3.1178370118141174e-03</internalNodes>
          <leafValues>
            8.7703265249729156e-02 -2.6191496849060059e-01</leafValues></_>
        <_>
          <internalNodes>
            0 -1 166 4.4911932200193405e-03</internalNodes>
          <leafValues>
            -8.2341186702251434e-02 2.8105142712593079e-01</leafValues></_>
        <_>
          <internalNodes>
            0 -1 216 -2.4637924507260323e-03</internalNodes>
          <leafValues>
            3.3477494120597839e-01 -2.2444006055593491e-02</leafValues></_>
        <_>
          <internalNodes>
            0 -1 287 -1.0704468190670013e-01</internalNodes>
          <leafValues>
            -5.0350463390350342e-01 2.7926653623580933e-02</leafValues></_>
        <_>
          <internalNodes>
            0 -1 112 1.8889797851443291e-02</internalNodes>
          <leafValues>
            5.1731266081333160e-02 -3.1309580802917480e-01</leafValues></_>
        <_>
          <internalNodes>
            0 -1 79 7.6403152197599411e-03</internalNodes>
          <leafValues>
            6.3981980085372925e-02 -2.3463633656501770e-01</leafValues></_>
        <_>
          <internalNodes>
            0 -1 562 6.1987078515812755e-04</internalNodes>
          <leafValues>
            -1.0416605323553085e-01 1.5545500814914703e-01</leafValues></_>
        <_>
          <internalNodes>
            0 -1 711 -2.1965526044368744e-02</internalNodes>
          <leafValues>
            -3.6630028486251831e-01 4.8814520239830017e-02</leafValues></_>
        <_>
          <internalNodes>
            0 -1 429 -5.7924138382077217e-03</internalNodes>
          <leafValues>
            3.5229820013046265e-01 -4.4955439865589142e-02</leafValues></_>
        <_>
          <internalNodes>
            0 -1 723 -3.4398172050714493e-02</internalNodes>
          <leafValues>
            5.3783535957336426e-01 -2.4465566501021385e-02</leafValues></_>
        <_>
          <internalNodes>
            0 -1 387 -7.6444479636847973e-03</internalNodes>
          <leafValues>
            5.5405020713806152e-01 -2.7367323637008667e-02</leafValues></_>
        <_>
          <internalNodes>
            0 -1 440 -1.3798560947179794e-02</internalNodes>
          <leafValues>
            3.3114394545555115e-01 -4.2344972491264343e-02</leafValues></_>
        <_>
          <internalNodes>
            0 -1 23 4.2846970260143280e-02</internalNodes>
          <leafValues>
            4.7642342746257782e-02 -3.3582201600074768e-01</leafValues></_>
        <_>
          <internalNodes>
            0 -1 564 -4.8794042319059372e-02</internalNodes>
          <leafValues>
            -2.8715041279792786e-01 5.0545692443847656e-02</leafValues></_>
        <_>
          <internalNodes>
            0 -1 533 1.1540917679667473e-02</internalNodes>
          <leafValues>
            7.4761688709259033e-02 -2.1071317791938782e-01</leafValues></_>
        <_>
          <internalNodes>
            0 -1 719 -2.1301689557731152e-03</internalNodes>
          <leafValues>
            -1.9921891391277313e-01 8.3510302007198334e-02</leafValues></_>
        <_>
          <internalNodes>
            0 -1 702 6.5592643804848194e-03</internalNodes>
          <leafValues>
            -2.5799186900258064e-02 7.1574163436889648e-01</leafValues></_>
        <_>
          <internalNodes>
            0 -1 194 2.0458001643419266e-02</internalNodes>
          <leafValues>
            5.1417309790849686e-02 -3.2201504707336426e-01</leafValues></_>
        <_>
          <internalNodes>
            0 -1 633 3.0198018066585064e-03</internalNodes>
          <leafValues>
            -5.5707693099975586e-02 2.6696529984474182e-01</leafValues></_>
        <_>
          <internalNodes>
            0 -1 631 4.7096111811697483e-03</internalNodes>
          <leafValues>
            -3.8408346474170685e-02 3.6424320936203003e-01</leafValues></_>
        <_>
          <internalNodes>
            0 -1 311 7.4628656730055809e-03</internalNodes>
          <leafValues>
            -6.6662982106208801e-02 2.1004877984523773e-01</leafValues></_>
        <_>
          <internalNodes>
            0 -1 155 -9.6330896019935608e-02</internalNodes>
          <leafValues>
            3.7386173009872437e-01 -3.4300260245800018e-02</leafValues></_>
        <_>
          <internalNodes>
            0 -1 335 7.3741823434829712e-02</internalNodes>
          <leafValues>
            -2.0927224308252335e-02 6.1624860763549805e-01</leafValues></_>
        <_>
          <internalNodes>
            0 -1 327 -7.0387504994869232e-02</internalNodes>
          <leafValues>
            5.8962970972061157e-01 -2.0109524950385094e-02</leafValues></_>
        <_>
          <internalNodes>
            0 -1 130 4.0444135665893555e-02</internalNodes>
          <leafValues>
            3.9230380207300186e-02 -3.9063003659248352e-01</leafValues></_>
        <_>
          <internalNodes>
            0 -1 292 1.5271240845322609e-03</internalNodes>
          <leafValues>
            -1.1608972400426865e-01 1.1438295245170593e-01</leafValues></_>
        <_>
          <internalNodes>
            0 -1 213 3.2796387095004320e-03</internalNodes>
          <leafValues>
            -4.9355357885360718e-02 2.5642117857933044e-01</leafValues></_>
        <_>
          <internalNodes>
            0 -1 151 -7.9588428139686584e-02</internalNodes>
          <leafValues>
            -5.8068805932998657e-01 2.4365216493606567e-02</leafValues></_>
        <_>
          <internalNodes>
            0 -1 602 2.8037866577506065e-02</internalNodes>
          <leafValues>
            2.6002926751971245e-02 -4.5978027582168579e-01</leafValues></_>
        <_>
          <internalNodes>
            0 -1 603 -1.0014430154114962e-03</internalNodes>
          <leafValues>
            -1.7602469027042389e-01 8.9334435760974884e-02</leafValues></_>
        <_>
          <internalNodes>
            0 -1 422 -9.1376935597509146e-04</internalNodes>
          <leafValues>
            1.7532604932785034e-01 -8.1268176436424255e-02</leafValues></_>
        <_>
          <internalNodes>
            0 -1 260 3.1057095155119896e-02</internalNodes>
          <leafValues>
            3.1464941799640656e-02 -4.6675193309783936e-01</leafValues></_>
        <_>
          <internalNodes>
            0 -1 52 -1.8952563405036926e-02</internalNodes>
          <leafValues>
            -2.7090889215469360e-01 4.6642698347568512e-02</leafValues></_>
        <_>
          <internalNodes>
            0 -1 218 3.6460103001445532e-04</internalNodes>
          <leafValues>
            -1.1070665717124939e-01 1.4387530088424683e-01</leafValues></_>
        <_>
          <internalNodes>
            0 -1 225 -4.9294093623757362e-03</internalNodes>
          <leafValues>
            3.2817566394805908e-01 -3.8277555257081985e-02</leafValues></_></weakClassifiers></_>
    <!-- stage 6 -->
    <_>
      <maxWeakCount>100</maxWeakCount>
      <stageThreshold>-1.0902277231216431e+00</stageThreshold>
      <weakClassifiers>
        <_>
          <internalNodes>
            0 -1 333 -4.8290230333805084e-03</internalNodes>
          <leafValues>
            3.3160620927810669e-01 -1.0583827644586563e-01</leafValues></_>
        <_>
          <internalNodes>
